<space> -0.97345954 -0.91189224 1.6410514 -0.47797254 -0.4917994 -0.038995568 -0.068810545 -2.2570968 1.9972597 -1.4229329 1.4144284 -0.12947783 -0.3968985 1.2575802 1.200616 3.0721817 1.1338805 1.5401903 0.15091655 0.6179789 -1.3204832 -2.6200013 1.4129597 -1.5607665 -0.97856814 -0.55043405 1.2414347 -1.1453089 3.06219 -1.2701013 1.3367914 1.2379019 2.0283267 0.378634 -2.3086417 -0.93219334 -0.37604788 -1.2292602 0.1190266 0.43443143 0.1437795 1.1089686 0.77041537 -1.1537082 1.6183826 -1.3045588 2.3440027 0.77733165 -1.2448082 1.0423995 1.2368985 0.357233 1.9985096 1.0877227 1.3434613 -0.751648 0.35132203 -0.4821316 -2.1140265 -0.5846954 0.5347798 -0.074974164 -1.1859279 2.0722473 0.9163375 0.29981 -1.649319 -1.4756545 0.24567468 -0.80250037 1.3609048 0.31994113 -0.41837564 0.73016375 -0.9634634 -1.3818955 -0.7061346 -1.2836859 -0.26810437 -0.53057307 -1.5429497 0.30732757 0.38600034 -1.5656416 1.7894497 -0.010478887 -0.03631578 -0.09983405 -0.09717524 0.019236693 2.5940952 0.34901035 1.3418293 -2.2096317 -1.0112865 0.09497285 0.24031797 -1.7647154 -0.25728366 0.30268228 1.5070676 0.37694326 -0.3273107 1.1018746 0.26716995 1.7938663 0.5971456 -0.62702084 -1.5048392 -0.8116536 -0.8642405 -0.20455566 0.64723384 -0.23927234 1.903313 1.4841827 0.93416166 1.1927725 2.327977 -0.76206976
， -3.2685452 1.4429785 1.3910083 -5.639141 0.54806405 -3.146929 2.3020523 -1.8836914 3.024154 4.032782 -0.4915343 2.7840908 -3.1637096 -1.8980267 -0.13070229 4.4464536 -0.07378291 1.4046748 3.6040382 1.8767184 -2.3559368 -0.84217376 -0.93161434 -2.6484864 -0.78051853 0.19391954 0.5064291 0.8707083 1.1811488 -1.0885875 -0.89172524 -3.0467837 -1.2137879 -0.7283273 -1.6437024 2.405697 3.0274107 -1.3000853 1.1201117 -1.8063211 0.230841 -1.9421508 3.935856 3.047661 -1.0959922 0.876509 4.012371 -1.6980665 -1.4560902 -2.3061006 1.8457483 3.385661 0.6062778 1.1373419 -0.27549386 -1.1142248 -0.18733017 -2.4335363 -1.8252544 0.40315682 1.7941726 -1.9057146 1.2321681 -0.39644003 1.16424 1.2278308 -3.1437263 -3.7372656 -2.0665183 0.9162241 2.8599052 0.8164939 2.0365987 -0.050182234 -1.8408014 -1.2003994 1.9267954 -3.3412833 -2.734827 0.7665795 0.21627358 -1.2109226 0.57199544 -0.19669206 1.7093128 1.580737 0.0025012682 -4.007822 -1.7248522 -0.6409475 1.9564244 -1.277673 1.2503104 -1.3512783 -1.8884835 0.62810266 -3.1899328 -5.5250635 -1.6390952 -2.451452 1.8455297 1.8384962 -0.5852582 3.486508 3.5412858 3.4508169 0.8263072 3.0412304 -2.8759973 0.07196421 -0.91820014 -2.8214867 -0.39977714 1.3458654 -0.18117282 -3.1624763 -1.7054243 3.9517908 2.6108818 -2.271069
1 0.2544558 1.8789804 -0.6162218 -1.7428304 3.365123 -5.5388026 2.5783677 1.1443925 -2.4005501 0.6739868 5.4476223 2.9297392 -4.040333 -2.4345634 -1.8539053 -1.9942179 4.531186 1.002957 1.1332989 2.3782098 2.4487882 1.9400831 1.0384334 0.64163613 2.6829557 -1.797837 1.4241757 -1.528359 -0.18972294 0.840751 -0.33514306 0.3254199 3.1932085 -1.2380924 -3.392549 -1.9474169 -4.0908375 -2.8699744 -4.6116576 -1.3078618 4.4916863 3.0636144 3.2720428 -3.1502712 0.5310477 -0.8939795 -2.391419 4.875984 -1.2469505 -0.8688177 3.7454758 0.5359628 0.9702599 -3.9405143 -2.367509 -0.57095987 2.230213 -0.17023697 0.07181046 -3.0016716 -2.672671 1.1941977 1.4751836 4.781976 0.69295764 2.2808495 1.8961697 2.6253798 2.8598146 0.89608383 0.25760442 -1.3773278 -4.70774 5.9534087 -2.0688474 -6.35948 3.612285 2.3189003 1.747105 0.72254574 0.6257476 0.5531099 1.6931707 -0.23739919 -2.5000315 0.30451015 0.90733725 1.0778391 0.28169551 0.6450545 0.5834213 -4.639891 2.1494248 2.3028724 -1.918843 2.33563 4.514913 -3.0580714 3.283163 -0.4651979 4.3536625 1.478764 -8.212868 -3.6298594 -3.629706 -3.2087595 -4.401326 -2.4008265 6.494209 3.2088575 3.1520784 -2.584011 3.2973735 -3.7677553 0.43693635 3.1174474 1.8268917 0.8968583 -2.2167025 -0.15636386
无 2.6910315 -4.012235 -2.4719963 -0.105022915 -1.7042179 -1.1950209 -3.097323 0.26248908 2.7332659 0.8995006 -0.89664227 0.9891281 0.31568077 -0.08580479 3.6724317 0.31053963 -2.1110296 6.1075625 0.8777023 -3.9986718 3.4510715 -3.2584693 3.8258128 -0.6871228 -0.55087423 -0.81510776 -1.347799 -3.0338984 0.19266962 0.71868026 -1.3469203 -3.042125 -0.78890765 -0.981791 0.89390266 -3.1675415 -0.31629753 -0.24122812 1.7202175 0.18930645 -1.8234956 1.681877 -1.8148628 2.4681964 4.2353625 0.9459204 -0.5082078 -2.4234712 0.5524014 -0.8551352 -0.91831744 3.093868 -2.7216914 1.3327366 -0.68202525 -1.7188781 -0.24688056 2.1505618 -2.3322227 -2.6879034 0.24452426 0.524533 -6.298303 -1.8237058 -1.037337 0.234883 -0.8587306 0.07940851 1.2159344 -0.7039536 -1.1970302 2.2054822 2.227448 1.15486 -1.818231 0.1466247 -3.0562325 2.8549893 -2.507354 -0.5045445 -4.394644 2.1947944 -1.4065974 3.691231 -0.065554924 -0.03250986 -0.90692765 -0.94175047 -1.9353684 2.8233702 1.7459834 1.4109004 2.1557612 4.868965 2.2222722 2.2548304 4.027659 -2.0037735 2.782049 0.93124026 -2.0001729 -1.604056 -1.9143646 0.0020159602 3.402139 2.5451467 0.927995 1.012873 0.22393851 1.6087501 1.9249228 -4.2317605 0.116196565 -2.2057822 1.2143476 -0.8479955 -1.307802 2.218306 1.243555 -2.544479
。 -5.0783157 1.269442 1.2139599 -4.0651345 -1.1980017 -2.417495 2.436219 -1.7906382 1.5565422 4.279873 -2.0036805 1.8730133 -3.4555283 -1.0001549 0.9418967 2.8001049 0.9749862 -0.033034835 3.8600168 2.1977766 -0.50275797 -1.646197 -4.0783033 -3.384847 0.9507211 -0.15264872 -0.032098632 2.1907554 3.2338226 0.5174862 1.6061416 -2.0343785 1.2720252 -3.1946826 -1.1079059 3.7989793 1.7245572 -3.3841095 -2.3717418 -0.40803093 2.5247386 -1.0765663 5.513384 -0.30696622 -2.3906388 -0.5531572 3.3705242 -0.5640663 0.5753154 -7.849825 0.7712397 3.290047 0.7638936 -1.0429188 -1.7144881 0.32290924 0.42809817 -4.3454275 -4.007582 1.8630005 2.791919 -0.51412886 2.7081847 2.010836 1.288985 2.0844924 0.8131575 -3.0556533 -2.5440671 -1.8020319 -1.1251105 -1.1710224 0.66965455 0.71517706 -2.3931797 0.023610702 3.7053783 -4.458452 -1.959618 3.765635 -2.5729623 0.65238833 -0.7150256 1.2899338 0.4120506 -1.5861715 -0.16746983 -3.90825 -2.5378628 0.39067832 2.3823588 -0.8406617 -0.83879364 -0.9194913 -3.3327184 -0.14525427 -3.0783331 -3.8216279 -2.7766137 -0.50475025 4.6755986 4.8966117 -0.80841565 1.6650833 1.8610084 5.295728 -1.7938316 3.4386103 -0.58830994 -0.96668744 -2.9459403 -3.5169857 2.795117 0.6249321 0.31593215 -1.0034199 -1.2328335 4.018712 3.9266224 -0.8993176
、 3.109685 1.5231333 3.4934115 -1.2680892 -0.2699493 -1.1150539 -1.9233742 0.14064506 1.5639116 5.2823977 3.3355362 -0.549597 -0.2564138 1.2200712 -0.22228213 2.8552568 -0.5505897 2.7065947 6.014188 -2.9334671 1.3567476 1.4844649 3.9772103 -0.05971121 -0.37758625 0.33167076 -2.648441 -3.3843455 1.0734828 1.0025527 -1.840342 -3.7341335 -1.5729502 -0.24279556 -2.368382 -0.8991258 1.2358315 1.9191332 4.0426426 -2.093831 -0.06609951 0.6047564 2.1427073 6.2382717 1.8605907 3.4170115 -1.3085209 -0.26499498 -0.12526934 0.13079531 1.7094146 4.2962027 0.7994785 2.806202 -2.888252 -2.7082853 -4.350417 1.8375556 -0.88782513 2.1473002 -1.0161446 -3.6230361 -3.1456378 -2.0941536 1.1094766 -1.5445099 -0.5444128 -1.7295314 0.121510155 1.5356292 -0.050568197 3.9685345 0.13631402 -0.49716958 -1.1828098 1.710215 -0.12987795 -2.660206 -4.790768 1.343263 -3.8692331 1.1819454 -2.3120537 2.3864944 1.1933186 2.9968808 1.1842117 -3.2678611 2.6639009 1.0460156 -1.2833797 -1.7261022 -0.21854004 2.8117723 0.4627669 1.1093154 0.13848671 -6.97487 0.1831907 -1.1302999 -3.6972315 0.69630873 -2.1314592 -0.4193477 1.1729256 1.5260113 0.38206953 -0.28553838 -1.8569251 0.19205514 1.2975996 -0.2919701 -3.4053686 3.5412729 -1.7368492 -4.511541 -2.6387887 2.320839 0.39360628 -1.5560687
2 3.011784 -0.72382045 -0.7784209 1.1572236 3.9298725 -1.9296383 -2.1782575 -0.31065658 2.2535398 0.2804326 3.215547 3.2321246 0.14849943 -0.13707228 -0.9244253 1.9176476 5.839997 4.3312435 2.8194857 2.6153464 1.8057196 -0.7257632 -0.6687067 -1.3032144 2.3734844 2.748454 0.19067447 -2.0083022 0.37330908 -0.6722131 1.9531409 2.983874 5.121318 -1.0413173 -3.0309544 -0.15450521 -0.77619874 -2.764124 -4.676113 2.961167 2.6350803 0.08516662 0.21976191 -7.325611 -1.0020392 -3.0799181 -1.3390138 2.979674 0.44176856 -0.7754658 -0.16290085 1.140806 0.051047407 -1.9597759 1.4409902 -0.7119747 0.37316728 -0.57418907 -4.044294 -0.63717854 -0.26090318 -0.49926198 1.6255728 -0.30283487 0.6865745 0.5122384 0.7992219 0.5962732 1.7358037 -1.7101542 0.5001481 1.1250801 -2.7313807 -1.1476356 -1.316294 -4.314359 0.05713548 -1.0489421 5.269363 -0.42837223 -1.3341134 3.0164044 3.0441597 -1.7426337 1.5122662 -2.5740373 1.2856839 -1.2628804 -0.6190028 -0.26385048 1.0043907 -2.443683 1.2887334 1.1543089 -0.039084822 0.5100632 0.86261433 0.833049 0.9600482 -1.889867 1.9184159 3.3877115 -1.5652021 -1.3774499 -4.253116 -0.23832645 0.27519104 0.9420117 3.5174367 -1.0753903 0.48656726 0.038007483 3.3001413 0.37398314 2.620551 5.094534 2.2482762 0.6573568 3.6046696 3.2764165
0 0.23727085 -1.31954 4.758476 1.7297833 4.7868457 -3.5615714 -3.9722033 0.95126903 0.20750314 -0.8476482 4.339765 -0.27836624 0.64331895 -0.35171658 0.87551063 -2.0383766 5.97845 1.7379638 1.6585926 0.29325706 -1.3672584 -1.4737984 -0.17998151 -3.0975196 2.0356443 -0.6485248 0.91487867 1.4518772 2.126955 -2.7505522 2.0194507 1.6987565 5.0433307 -4.298091 -0.28206414 -0.21861239 -0.18520822 -1.6507282 -4.210181 3.2519772 4.9608965 2.9317653 -0.074084334 -6.6178293 2.3232667 -2.095017 -0.48802048 1.84049 -0.7746791 0.67815876 -0.021045595 -0.1001159 1.9682257 -2.1287713 0.20516552 -0.4747572 2.233799 0.14732341 -2.2265804 -2.4845815 -0.077471934 -0.44532865 1.2395248 2.5630782 -0.08013055 2.570964 0.7022119 0.23020309 -0.0058375965 -0.5060075 -0.485073 2.4987357 -4.3471985 0.20514631 -2.2163837 -3.3809147 0.35078815 0.16143651 4.12406 0.08736039 0.43781707 2.0669842 2.9535632 -1.0866488 0.6934445 -2.2334094 2.5804102 0.6113151 1.1037506 -0.042018343 1.9677325 -1.9345053 1.6342274 -0.56966436 -0.8067003 -1.0199144 0.99767566 1.732181 -0.079197094 -3.1230495 2.9173584 5.23169 -2.6571922 1.8481079 -3.7496605 -0.7677805 1.1689806 -2.464659 1.7348894 -0.7669572 1.18275 1.1912137 3.6320684 3.1592634 1.1246428 3.7073143 3.983013 -3.2037249 4.9039445 1.0081068
及 4.824585 0.16210611 0.06729444 -4.2100005 -1.7205087 -1.9575095 1.0014168 3.1681879 -0.6296738 2.9149134 1.0131108 -1.5123763 -0.71597207 5.702761 0.33619446 3.522604 -1.5619227 -3.7358391 -0.55514216 0.012615605 5.4361243 -0.3175067 3.200477 -0.93513715 -7.6137037 2.6609073 -5.8711524 -6.0609164 3.5583253 -1.1091712 3.364414 -4.9114156 -3.768911 -0.9738168 -0.97570187 0.75347114 2.4970207 -3.0764651 0.33708248 -3.0027008 1.7321895 -3.2583542 -6.347822 2.4231954 1.4782234 1.4487901 -0.21986775 -6.037775 2.0000136 2.3726332 5.262312 -2.2475767 -0.24603294 -1.7675129 -0.22093211 2.058922 -4.7238426 -1.839278 -6.8532495 4.1526127 2.3566575 -4.7896404 -1.0946159 -4.929681 3.4323292 4.6210384 -4.384665 1.0273669 1.6784432 -3.3873293 1.0433481 0.7565825 1.0149031 4.161384 -5.4077725 3.7286994 -0.6864015 5.3539157 0.64020604 -3.4090438 -2.9411304 3.2821045 0.64787185 -0.24552354 -2.7915254 2.047577 1.6230446 0.17751564 -0.56787574 -2.3706753 -3.4740133 -2.769457 4.9112782 2.7847216 2.8084083 4.1818304 2.9645967 -1.7186394 4.465586 0.17679371 -5.4127736 -0.72029644 -2.1632323 5.0242114 7.609144 3.153586 -0.69681895 1.4873292 0.39287198 -4.038739 -4.7325583 3.0392 1.364342 2.2490976 1.129925 1.770058 -6.57474 4.002089 -4.220158 -0.04907183
音 3.7741015 -4.000794 -0.1798184 -3.3790803 -1.5507213 1.8101457 3.8034654 -5.3941116 -2.9139495 -5.681289 1.2526281 2.8127449 0.92248595 -3.1299596 3.3740318 2.4648829 -2.8359957 0.08235418 -1.3950902 2.623003 0.47815603 2.365024 3.792852 0.76445484 -2.544452 -0.704871 0.18944794 -2.7171445 -2.4424093 -1.8792546 0.20827603 2.7011635 -4.5128436 -6.228397 -1.6892154 -5.841123 -2.6537607 -3.3730137 0.07416717 -5.5396185 2.9403627 4.7511034 -4.706881 0.43163216 7.6158953 -1.2157874 -5.7008104 -7.7821956 -5.378214 4.5919027 -2.255907 -9.363535 -2.0566676 8.085584 0.059410207 1.5969362 6.167078 -4.5802236 4.6436114 4.0005836 -5.7830386 5.5530014 4.967002 -5.375168 -2.601432 4.6816344 1.1967363 -4.0728273 4.7855268 4.2891464 -5.148472 -5.9518886 -0.8399839 -1.471999 7.074125 -0.7027301 1.8131378 4.6402693 0.39696229 0.08890744 1.0956511 2.7533085 -6.7010684 -1.2808692 -1.5058601 2.563795 1.330074 1.7508295 4.325741 0.9422171 -3.4353108 -4.232831 6.394554 -2.268912 0.15107965 0.5819431 1.4701788 -3.16481 -0.24853559 2.601542 -8.6650915 -1.4041793 1.7495204 -1.9729637 8.850705 -2.7293828 0.5161353 -2.518278 -4.793808 -2.3227696 -1.9668038 -1.8301588 2.0914483 -0.32332364 -3.5654476 3.248545 -4.126242 -2.1686158 3.5706944 -1.0844764
. -6.0333495 -0.84727764 9.287365 -3.3871758 -3.6262772 -3.7398117 -2.128991 1.1122891 -2.8841755 1.9899675 3.6534846 -2.2336602 -0.5369104 0.6751494 -2.8624735 -0.2711163 -1.0593841 -0.32701722 0.68114364 -7.840552 1.1454508 -0.87391347 0.73365563 2.188411 2.163322 0.60568845 -0.16290942 0.7738252 2.5863853 -4.045711 3.9307303 2.8834112 7.780938 4.909157 -1.2743628 1.9722095 -1.7609117 -5.4927273 0.5427832 2.162625 1.594662 6.101 -3.2263463 2.01732 3.5861933 -0.18517892 -3.7480187 1.7397834 -0.65018976 -2.990322 0.10806064 -3.7498732 5.7158675 1.2690501 0.7247321 0.1647059 4.722548 1.9316834 1.0954158 0.89401585 -2.9143236 -7.011662 -1.7009091 -0.16879167 -0.51444405 -4.997267 0.46986523 -2.2449322 -1.6929369 0.78560406 3.3094704 3.5003765 0.65463394 1.0815287 -0.9073327 -2.3472633 2.992287 -4.9845896 7.0666695 1.5094788 6.317883 -0.2586614 -1.801474 -1.3904284 -0.059457153 -0.31228423 -5.8040214 5.2283373 6.2889585 5.7210913 3.439806 0.2348412 3.9519057 -2.7059903 -2.1438897 -1.4763393 3.932924 -8.427027 -1.1713871 -1.9724485 -0.89339215 3.5322938 2.4251444 0.2621601 -3.0820498 -1.844938 -1.8031079 -2.6047995 -4.212187 -0.40513107 1.2637285 1.5101355 6.0943837 1.6820742 -0.7542372 -2.1197412 3.0887184 -3.5595236 2.4328337 -1.4138818
发 6.369604 9.697647 -2.0643728 8.27181 -3.1164503 0.46729225 -1.8396379 2.2427316 -0.14341687 2.7634401 -4.526522 3.5896568 5.5184393 -1.0751117 6.4438257 5.570908 -7.785281 -0.0798518 -1.5277462 4.8889546 -3.543241 1.1223924 -2.537223 -1.552391 -3.2119346 1.7320287 -0.954709 -0.9763729 -3.104458 -1.7684203 -1.8434263 2.5813744 1.9289857 1.2708627 -0.24413608 -0.05281518 1.1623597 -7.6171484 3.5056472 0.4134654 3.4226394 -3.1526587 -0.5257424 -8.305759 -5.4754443 1.4977108 -2.9026453 1.7703767 3.693991 0.6592892 6.0545225 8.73615 1.5604016 4.9251776 -1.7467746 -4.782288 -0.34591413 3.5729702 1.9415545 -4.1016054 -1.4999964 1.583595 -3.9844906 2.9410207 -4.9174943 1.9003987 -0.011982967 0.4881787 0.0349251 5.680648 2.64418 -3.0105653 -3.3422968 4.2634954 0.10271767 -3.9437397 -2.3664474 -2.014846 -7.9789195 2.7727811 -0.22893076 -2.9334495 3.2108674 2.7051082 5.204399 3.1948256 1.7085832 3.3117807 -0.60762686 2.7876554 0.6645784 -1.055525 2.189345 -2.913448 -3.105925 -2.2278855 6.6902156 -1.9062841 -1.7141273 2.3470347 -1.5312256 -6.778152 -2.3005838 -3.7745152 5.239487 2.80342 0.9312429 -0.8236258 -7.683651 -7.970453 -0.34460834 -3.2639103 4.213236 0.89945686 2.8853033 -5.7657194 4.4635143 -1.3024476 -6.2556868 2.6462464
未 -3.9497545 -5.8544545 0.8098907 -1.286985 -5.1455097 0.45119083 4.8377423 -1.4884708 6.8567233 -2.661258 -0.46571183 4.9617805 6.4512815 7.4527535 -2.7047906 -4.0973663 -2.748739 3.2228346 -6.9875684 -2.3434453 -6.8600326 0.376918 -2.0058074 -2.3902242 -1.1386163 -4.6442804 2.5450888 -1.4005725 0.4649253 0.20144641 -4.229476 -4.1033273 -8.158747 1.4827693 0.22207873 -5.7440305 5.819783 4.1926026 0.40132612 0.7512082 -0.89503175 3.8432186 4.6602144 -7.1509976 0.123007834 -1.363777 -0.6751484 0.1241384 -2.666871 -2.1222122 -1.034986 -3.132759 -2.8752825 -1.9663553 1.2354662 4.0721617 0.2826 -2.0066223 -2.4124122 5.5294485 1.3636714 2.174074 -6.034472 -0.3608042 -4.336341 2.942559 -1.861473 9.142727 3.0892057 4.1236973 -1.3266093 -2.3192976 3.716115 -2.359187 5.332756 -0.13333829 -8.5989275 -3.133825 -4.413435 0.47278127 -4.898252 -1.8357397 -6.0176864 5.6760135 1.8896588 -0.18052766 1.0800787 -2.3825328 -2.7386365 7.1106853 5.015905 -3.274527 0.1680372 4.3954477 -0.8470114 0.44505948 3.6100595 1.5329098 -3.738181 8.184331 6.7027183 2.4237418 0.05437644 -4.4364247 -0.5607314 5.248736 -2.6462066 0.67958677 3.476803 1.0245937 5.265094 2.011223 3.6543963 -2.577135 2.379056 -0.61587083 -5.511698 0.044128872 7.3949666 -1.0699831
诊 3.827149 5.004099 1.7871416 7.4030128 -2.5460122 5.4690638 6.0420713 1.2641706 -2.156202 -3.1752052 -0.5387264 -2.3798478 -3.8291972 0.18915766 3.7895284 4.0237613 -1.5615816 -6.849127 -3.2854145 -0.13261832 -0.9160302 2.1472962 -8.967078 3.2170665 -5.7225266 1.435755 -2.5956357 -0.7535101 -0.060264 -3.2994895 -4.7047133 -4.330812 11.509861 2.6354985 -4.912568 -1.006494 1.0689118 -0.25898835 0.8279016 4.269842 0.385829 3.5051317 -0.19608268 1.527869 -3.7843783 -2.3780892 2.9627314 0.33701003 0.4354344 1.3204508 -5.4613285 -7.072575 4.7567425 -2.2490025 -10.754985 -0.8336959 -4.3058386 4.031416 -5.713405 1.6759821 -1.5974737 -4.389257 1.444351 5.4018164 3.4915009 1.7160437 -5.556772 3.2488358 -5.766312 -0.71281654 -0.16093065 -0.063780844 -3.0574114 3.853704 -3.5959716 1.1049179 1.2171719 -3.5390217 1.8157015 -7.659142 -3.6922307 2.1489813 -5.701702 1.3485214 -3.2121193 6.998687 -3.2731187 2.4511948 -4.043877 1.2027986 1.8772718 -6.005419 -2.2207985 1.8830729 0.6310576 -1.1252158 4.2935033 -0.049771253 -2.3830543 3.395437 0.1948675 -1.0840279 1.8479178 1.1014476 2.958871 -7.1721554 0.6316397 2.6446657 -1.2992165 -1.0095258 2.9359272 0.66174024 -1.1335968 -4.5773764 0.87922424 3.5402908 -2.0016286 1.2030888 2.0276537 -2.485376
性 2.1201913 -1.898833 -1.4527688 -0.34895036 1.5182954 2.2593665 -6.723913 1.7679653 0.602018 -1.6118882 -1.21287 -7.1947317 -5.4317646 4.6244087 6.3140845 0.62911963 0.18711653 3.975456 3.0961475 -1.6191598 5.7249026 3.1909304 0.9192235 -1.0911994 -1.347354 1.8972104 1.4790828 -2.3895717 -6.3179474 5.312644 1.1744434 3.3215766 -1.3996507 0.5162439 -3.6997404 1.4505469 4.0606227 8.266746 -4.1223216 6.302874 0.47965547 1.47286 1.3523294 4.0430946 1.4418865 -1.6785665 0.5790145 2.1411734 -0.042221002 0.44721547 -0.82969666 3.0681574 -2.001626 1.9596108 -3.119736 -4.6514716 -4.914973 1.1581055 -8.065275 1.6694264 0.5332685 -0.88122296 0.03704677 5.747118 -1.0554461 0.52491 -1.1008521 -1.5199858 1.3229353 1.7563777 -0.5159957 2.2133467 2.9696429 -0.5525761 4.0025897 -3.1182368 -3.2377505 1.8856391 -3.6146216 -1.0738298 4.3677425 2.0881512 1.721187 0.08004446 -6.3384643 1.3936764 3.3791325 -1.060512 0.49417442 1.6111562 0.56507367 -2.8185163 -0.8283099 2.4102325 0.33388695 -5.2352567 -1.4160111 3.558141 4.8908935 2.939886 -1.3824308 4.959069 1.6828963 0.2046845 -1.936915 3.311577 -0.8626204 -7.751411 -1.9761541 -3.2737124 -1.7193198 5.2045026 0.12985757 -1.5076667 -2.2046065 -6.1245656 -7.2581263 10.7826805 -4.018534 -7.2629623
常 3.0539193 1.3004385 4.87257 -1.731694 -0.89655954 0.52669233 -4.5939994 -8.005427 0.23418638 -0.36123624 -7.0486608 -1.927774 -1.1466907 3.39901 -0.56924033 -0.45213315 -0.30127358 2.0807893 1.9982096 -1.9039048 -0.41419205 -5.9261475 3.9189765 4.1748824 0.83985454 -1.651494 -0.45724297 -2.79403 -4.985214 -5.921002 4.604475 -2.6762707 3.2196217 6.4800177 -0.19223881 -2.8051822 4.8522124 6.5568137 -3.1627061 -6.102629 2.083201 6.2031965 -0.5880694 0.2266726 -0.503126 -2.7005908 3.899929 1.173557 1.1793056 -4.8399334 3.157019 -2.0256033 -5.5650725 6.2956457 -1.2179626 -5.8348093 -8.68196 -2.4422626 -0.02751214 4.799051 0.54498124 -1.5962301 1.2598324 -1.4144654 0.45033363 8.416068 -3.0046914 4.358328 1.9076372 -0.007991742 5.001055 -6.332229 -0.9579229 -2.469062 -1.7704393 0.9082181 -8.044542 -0.27598098 -10.349821 -0.3154196 -1.1800861 -5.0369706 -0.9359897 -3.132822 6.4268622 3.7072506 0.82061404 3.9424255 -2.076634 -1.2396845 -3.680521 1.4139386 2.4883091 -1.741333 -2.5124588 -0.7937312 -1.2127688 2.232899 -1.5560985 -11.819032 -1.188181 4.5818405 -0.53294706 -4.01398 -2.212173 -2.9732 -2.4436295 -3.7678788 4.041936 4.035365 -0.7532913 -7.3763256 -2.2282982 -1.7800344 -2.1172292 5.6820064 -4.9801807 -2.7544155 -3.3426886 -4.507814
心 0.7919297 -1.5324538 4.892908 3.890854 -1.8306316 -5.891284 -3.9005556 3.6006837 -0.44068134 -4.25388 -0.96774095 1.2478985 4.2090173 0.43733355 1.4247516 -0.90835434 -0.29625517 -1.0599109 -0.6601096 -2.5877757 -0.9914933 -4.1614003 1.9229462 -0.36989984 6.1436973 -4.052207 5.8646526 -0.14097747 2.9029257 -1.9445533 3.5509374 -1.0716035 0.7359372 -7.7091 1.8299111 0.5027412 -1.3557575 -0.99146956 3.7775416 2.3341625 -1.3549044 -1.2779626 -2.3832078 1.9866198 0.8106883 -1.9075335 1.9470452 3.8496225 -0.8397101 -0.042297967 1.7519687 0.12411667 -5.831886 -5.156626 -3.5352309 2.5565796 -1.454553 0.44539365 -0.17633991 5.7316236 6.4589567 7.1815224 -4.0663257 -2.7599058 0.11471674 0.8289567 2.3020957 2.6834602 2.9547832 0.7484546 -0.5598063 1.6146222 4.0990825 -0.8623007 -1.8464667 1.9826512 -0.87256056 3.6845381 3.1531932 -6.197843 -0.50904083 4.172648 3.7050452 -3.0772164 6.0203657 5.3124676 0.9308424 0.6189102 0.11646251 7.1452208 -0.8619278 0.66920704 -2.6486328 2.2597735 2.4833586 4.3386183 0.41447228 -1.6990561 -0.75193727 1.9271691 2.190531 -0.4450842 3.5839238 1.0485253 4.4658275 -1.2460929 1.9310483 -6.90086 -1.2839054 0.5727115 -0.6888456 1.9485514 7.474941 -0.29191446 5.1241856 -3.0258074 0.1350888 1.4603126 -5.0944486 -5.355426
3 1.9258009 1.0410287 1.0182236 0.98879623 3.3385272 -3.481481 -1.7071817 0.75218236 3.6045852 2.8867447 0.9296896 2.4175515 2.8919098 -1.3571912 -0.9521714 -0.5199485 7.786984 8.382796 4.554051 1.9933059 0.9632138 -0.42381227 -1.7478664 -3.9285047 -1.4117968 2.2566297 -0.8974011 -1.2306849 1.2022313 -3.0993302 2.0510104 3.3436825 5.2342305 -1.1783752 -2.0723283 0.4385267 1.3505663 -2.6283555 -3.9940047 5.0603037 3.1590474 -0.41190377 0.92347795 -8.13958 -0.47352332 -3.8080277 -2.9718637 1.2676871 0.45580107 0.14961343 0.43462807 1.2592537 0.34841856 -2.873646 2.325124 -1.48433 -0.4289666 0.38973203 -4.0789847 -1.4260134 0.37789965 -0.10075096 3.3811803 -1.3195744 -2.0343876 -0.025216766 -1.7525132 2.0053668 0.76388294 -0.97301185 -0.70003617 1.5801585 -3.6771476 -1.3349983 -0.9602387 -5.2264867 -0.5447517 -0.5502276 3.276882 -1.3738095 -0.88363 2.9402783 2.2446463 -2.9642441 2.56995 -2.121618 1.7199706 -1.7290978 -0.8335222 -0.8893913 2.5480626 -4.1047335 2.0831046 2.959278 1.31978 0.5171734 -0.6663718 2.1670408 1.0064307 -2.506891 2.0786436 3.201893 -1.2029517 0.12256316 -2.8780112 -2.437834 1.5918077 1.5768112 2.4568477 -0.4747544 0.23153453 -1.2950634 0.9031447 1.0395311 1.5569514 5.020182 3.7364833 1.6715392 5.1606 4.669708
院 0.52743316 -0.17251948 2.0401466 -2.3518631 2.521511 3.1317143 2.2965338 1.9618648 -0.54653984 -4.9256487 1.3331261 -0.7256324 1.0923756 0.80523586 -5.538543 -5.1839333 -3.3007324 1.731145 -0.02238192 6.8697696 -6.6795893 -1.6372699 -5.966734 10.03975 -2.087329 -3.4739048 1.9632641 -7.8268604 -0.49023023 0.113011435 -8.278819 -0.48591188 5.6714377 3.00014 1.9824389 4.070476 -5.6511407 2.370817 2.3903465 -3.076812 3.8904297 3.210064 8.961667 -5.830034 -1.5270016 -2.272738 -0.38093343 -0.40608147 11.781322 -3.2007072 -3.3706882 -6.5954986 -2.8721063 -3.537997 -0.430731 2.2263339 0.32129905 -2.8054957 -4.386204 5.0726056 -1.1660864 1.6853861 -7.9416614 2.2132285 -1.8428222 -0.9769381 -0.09595726 -1.46208 0.9628665 6.6656165 3.6306994 -3.5927415 0.68130696 -1.4455931 0.338443 7.8493624 2.754489 0.29266256 5.822175 -8.724352 0.35712573 8.129389 1.7194595 9.779471 6.025293 -2.4137688 -5.017418 4.1002393 2.6211379 -3.23774 8.645169 -5.5835795 -8.548769 -0.21450944 3.9581397 -6.1321287 -10.151253 -2.2972255 9.290742 -4.306038 -3.0637064 5.041721 -0.62739676 -3.0987284 -2.6263158 3.8393734 -3.0960417 5.993866 1.8550919 2.102789 -3.22291 3.8536909 11.604482 0.9076276 1.1645339 1.1564828 -3.1776738 -2.4392946 5.46131 3.2799807
大 -2.078392 0.011190572 -2.7330146 7.364829 -6.441533 1.5444796 4.264675 -8.347216 0.5670071 3.1723452 2.5165331 2.7731972 -0.96097094 -2.3766036 -2.7516656 0.18418558 -4.019738 3.1371589 2.744103 4.617869 1.1350956 -3.6195385 -4.0165114 -2.993528 -0.12594526 3.8704255 -0.5949057 -6.0283628 -3.5212731 -5.0888205 7.8275466 1.8584315 -2.3231807 5.1406713 3.3798919 -5.306655 -4.084686 -1.236279 -0.54301524 -8.313227 0.06302095 -1.5911039 4.0006394 4.9453096 0.2928237 3.009393 0.35996333 -0.8761175 1.0952667 0.31165886 1.5531836 0.054687336 -3.126571 -7.0440865 4.2078857 -4.444251 0.7230729 1.6429565 -2.4364934 -0.3306219 -2.070332 -2.4701366 -0.72207373 -2.9712532 4.199127 -0.59320664 6.143878 -5.1223063 -6.892301 8.446031 4.325357 0.56855565 1.7002654 -3.2550776 -2.1346502 4.003013 -8.312677 4.484745 -2.424352 -2.732781 -0.9110864 -2.8944545 -2.5640407 4.0155315 -1.1786585 0.9707946 3.48143 -2.535421 -0.44415236 -7.606666 1.795205 4.9952955 2.618912 -0.7435469 -4.094732 -5.768754 4.3948097 4.440101 -6.302566 -0.34494826 7.1677923 -3.8832774 -1.4560014 4.5615873 8.506732 -2.099255 1.8440157 -9.912057 5.438295 -0.4878126 0.41907924 3.8208876 -1.4161562 0.5641109 -2.5417924 0.8831535 0.8730152 4.0714264 2.803974 -4.7669744
血 4.910239 -2.0393586 0.07830264 2.2127912 -2.7197645 1.5488293 4.4506235 -7.7569833 4.6564994 5.0087094 -1.9974557 -4.968455 -0.22509575 0.13773489 -2.4766262 0.77427036 0.4058035 2.2134824 3.2507484 3.0397086 -0.11057411 1.3356628 -2.1620007 -6.279949 6.5249424 0.2758725 -3.2883856 -2.662851 -2.9497252 1.5069758 -3.029833 6.2924037 -3.6042292 -4.9232135 1.2494141 3.2725694 -6.3338604 -3.3888218 6.505743 2.8664699 -5.8935695 7.481271 -1.1909584 -0.13442083 1.1741658 1.5108141 4.72486 -0.41305885 -0.060669724 -6.4310946 -3.9786975 -4.0699773 -3.289942 3.4606903 5.664874 2.8236465 3.4618344 1.3721772 3.288746 0.37984437 -3.3802023 -0.8990194 -5.65859 4.8032813 1.0995469 0.86965615 1.270067 3.6676779 1.9502759 1.5520228 2.732824 6.520545 3.2397459 2.8652196 4.8070965 6.0852714 0.34774888 -2.4812758 7.103132 -2.9828227 -2.9217303 -4.587743 0.3560594 1.2045865 0.69951326 9.692798 4.3282943 0.022771526 -5.227465 -4.688131 1.2087557 5.2798615 -10.773543 -4.1276593 -3.6503458 1.8504285 -0.47716895 -2.4524608 0.015761979 -0.70418787 -1.3664714 -1.2078491 -6.8530087 -0.85470325 -2.5002782 2.9844265 0.9186991 1.2794948 6.461456 0.055666577 0.5649027 7.0805845 -3.0328848 -1.6435286 -4.9883733 0.70922285 -0.50032526 -7.495475 7.129568 2.7548594
体 -3.670952 0.3332659 0.36146495 3.778893 3.1498961 -2.2417123 -4.6038103 3.1932125 6.7863107 -1.5879512 -8.159049 -0.637243 -5.522516 -3.6393151 -3.7094188 -0.31964782 2.1361651 -6.077918 0.52022636 -1.0211312 -2.4976053 -2.034696 1.5727087 -3.5426733 -7.6755295 1.0139691 -2.7348216 -3.2140331 4.040707 -3.3902128 7.7565584 -1.7965622 -7.2352667 0.21662241 -3.2162793 5.09526 -6.8924437 -9.418286 -1.2631209 0.11350909 -4.288059 7.8540025 -4.3855615 -8.923603 1.0347569 -2.700165 3.1742556 -0.19207518 2.9941764 -7.9389176 -1.7185851 5.542046 1.980049 2.2178445 4.5450697 4.6013484 3.8729248 -0.19304907 5.378709 -4.9727864 -0.927891 2.1475031 -7.7700853 -5.9265485 0.6015297 5.931118 7.361536 -2.7459486 -2.7023606 6.0347567 0.9656578 0.49442294 4.3008814 -0.13311541 12.069345 2.6583073 5.696513 -9.0400915 -0.12834391 -3.1886432 3.5870092 -1.2891711 -4.386088 -5.9763846 3.720613 0.038484722 0.25123835 2.325113 2.9612422 4.77574 6.91947 -1.0787101 -0.027117778 5.557163 -1.0233294 -5.096885 3.9789834 4.4746723 -0.3699444 -4.266248 -3.885847 -0.6506322 8.770081 2.031361 -0.15881775 -5.9591722 -8.403301 -2.6073334 6.563992 2.4750369 -3.2034867 1.7285188 -1.8644583 -2.8094761 -2.7098439 1.2194333 -1.1075735 7.890466 -1.6397984 -6.0260572
腹 0.9603143 -0.8175121 -0.30743444 9.293596 1.6126139 -2.8199618 2.6398668 0.3652161 2.8974743 -7.2968845 4.692723 0.56033003 5.081901 -0.5384194 5.4348245 3.3142157 -3.7097926 3.2121227 -0.004905612 0.6841827 -2.3943899 3.5921924 4.509361 -2.2153587 7.886645 -3.2858214 10.668958 5.897404 -4.297926 0.5436598 4.8296046 -0.49058256 2.3079906 6.62783 -4.4352593 6.6074743 0.7821361 4.1387205 3.4437215 1.8743715 -7.809975 -5.4753547 -2.1963027 4.965884 3.0807958 -9.310611 1.4744198 -1.3242011 5.830492 -1.7830279 0.876956 -1.5377893 7.2795253 1.5069678 -1.0985167 6.7643704 0.45585036 -1.6532432 4.097867 1.7644377 2.5309677 -6.71568 -4.288825 0.39136204 -0.0655311 0.98805046 -2.3836625 4.221153 -1.0397373 7.587041 4.130379 2.5812883 6.2756987 -0.6456302 0.19253886 -2.303859 2.0273652 8.595841 -2.3512483 -6.5175424 -2.908088 3.0163748 6.560819 3.6312628 -9.797157 5.592023 4.062838 1.3226777 -3.9728184 1.1763877 0.67600036 4.055034 5.461406 3.5033002 -1.5216775 3.334909 -6.458029 0.81360215 -5.0497856 4.514455 -2.0228515 -10.486293 2.0109007 0.5054436 1.8601875 6.480783 4.025932 3.834499 1.1070447 6.474406 -3.0308604 -11.489242 3.7971792 1.7319311 -2.9122827 4.59747 -0.4927709 1.4455911 -0.33430436 -1.5515325
出 0.048231855 4.4534893 -0.42514682 -0.4396149 -4.9957104 -0.850776 3.7913432 -2.2510204 2.9868298 -3.1894317 -3.4226193 0.9450649 -1.3475802 -3.0811796 4.0061584 6.311426 1.5787733 -0.48412585 -2.9589515 -4.7208934 2.777651 4.3485756 -1.6506134 0.5176069 -7.053882 11.031881 1.6509948 10.601079 -2.065516 -3.0087285 4.476486 3.6583438 -1.100935 -2.038521 -3.481487 -3.250391 4.042033 -3.706291 -2.171924 1.8467603 1.8910934 -8.091156 -6.7927275 -4.737797 0.07372118 -1.5939562 -3.7508256 4.9766297 -6.188943 2.0042455 4.8883934 10.921699 5.4899826 0.66564405 -5.407019 -2.7602527 -4.8338876 3.4014745 0.96108246 0.10276344 2.7343152 2.9213727 9.892002 -0.37526375 -2.6327188 1.5577229 -0.46114555 5.4428573 0.17150979 -0.39580598 -0.8671231 -5.557926 -0.5864907 -4.426091 -5.435083 1.8739887 1.4269704 -6.3484674 -8.61235 9.397855 -5.5674486 -2.625886 2.2556653 2.3090978 -5.509531 -6.289686 -3.006272 -0.7326262 4.9131217 3.3067765 -1.0469468 4.0624866 6.316705 3.7476466 -3.4953172 2.5674257 5.794166 -0.041322477 -5.0382605 3.048263 5.330032 -3.0939362 -0.16022994 -6.0915027 0.31699634 -4.38944 4.627857 -1.3608949 -4.1237965 0.6047518 -0.7263203 -1.0159287 -4.1200504 1.3255956 4.8659286 -2.3407722 10.052709 -3.9977274 -10.682881 -1.55926
正 -1.0401337 -3.8382266 3.030272 1.7657217 0.04695871 -0.43167335 4.7569184 6.480152 2.2942545 -0.44279498 6.9310446 -0.6814255 -4.597908 -0.7793784 1.4886683 -9.125167 3.0964897 2.941986 5.3828015 1.2703695 -4.1014566 10.810092 -0.31458423 -3.8143053 -1.2348496 6.5350547 -1.9331152 -6.501233 5.8890505 4.6898093 -7.048 5.7918653 -5.9511576 -1.4160246 0.46622792 -8.053156 -6.2275686 -7.998828 4.080335 4.7553644 -1.0009503 -1.0043007 3.8815725 -4.620487 -1.6215998 4.6419454 -0.71631444 -1.2022581 6.3080792 8.096086 1.7589911 0.92371434 -0.42672908 -3.5394237 -3.4632442 0.9459103 -3.0327811 6.455843 -2.8452628 1.0642066 2.3006558 -3.4010582 -6.98024 -0.08252548 -5.094936 -1.3258231 12.273124 3.9545815 1.0550697 -0.11860241 -8.28606 14.298829 3.0543275 2.9405663 -0.035342276 5.924422 1.2570885 6.4118066 -2.385651 -1.7276187 2.8153799 3.4668858 -1.144089 1.1871563 -1.9624815 -0.8041971 2.0645392 0.6664235 2.1226654 -0.06093409 -1.8924377 4.725389 -0.18333042 0.5949327 8.141819 1.6957011 -3.5270593 1.8745643 -2.784195 7.669306 -4.406447 -6.3051634 2.9774923 1.2070992 2.5850954 -1.9999045 4.995876 0.6587357 5.8802934 0.940172 4.0762234 4.84008 -0.5648275 -1.8790781 0.9647871 -5.353159 -0.17090721 6.4011064 -0.9551024 4.5130386
儿 6.2557836 5.3675685 0.08407746 3.3978283 -8.194335 -6.0104723 -2.1409535 3.7287152 3.6970236 -2.5318792 3.7781594 -1.7002736 -6.3430915 1.2418405 -5.534491 -0.31888112 3.0488007 -5.4181147 -0.467795 10.572195 -3.3925173 -0.8750909 3.3126097 2.873107 7.3993783 -1.0639044 -1.2096531 -0.6393555 0.27997229 1.6045994 1.1109834 1.9306704 -2.8794305 -3.0150745 2.0332167 -9.99624 1.3420311 -2.6324868 -7.8254085 -1.1759087 4.2939806 -2.5964177 -2.5647748 -5.76059 3.1458423 -0.21820398 2.902203 -3.47214 -1.1680795 -3.4852607 1.5173974 -2.6677117 -1.857807 0.6246519 -0.84171295 -2.1152418 -3.0919805 4.6296663 3.8254015 -0.15847962 5.7185764 -1.2513796 6.8185763 4.9275994 -6.7328596 -1.6007642 1.1190562 1.9969264 -1.1114699 4.912046 4.6791563 0.16324973 -2.031997 -5.0817027 -4.3687773 0.9188167 1.9416811 -4.9496098 3.3764112 2.9864604 3.5869756 2.1190662 3.3273077 2.3543496 0.835444 -5.156885 -7.1566043 -5.371399 -7.4215565 1.4058937 5.556126 0.6951758 0.38373864 -4.7376456 1.1761317 -3.2646759 -5.253999 2.78997 -1.3325061 1.6336262 1.9217594 0.014488627 -2.8793108 -4.6158586 1.500542 0.9170964 -3.4540832 3.8247821 -1.612649 0.8357814 -3.7008834 -3.5742362 -2.6103513 1.6968585 -3.4065163 2.8970344 -0.033508364 4.88247 -2.4396846 -5.3441763
咳 2.0949807 2.3870935 -6.1359696 -5.406911 3.7504902 -1.2548356 -3.0522351 -6.7762947 -1.7694947 -2.663019 -0.99425757 -2.1103718 -3.719097 -6.344327 -2.6119742 4.646298 -3.8648188 -1.8127495 2.0685232 -0.42961735 4.4087915 0.20890275 -1.451663 -0.2113375 4.0062685 1.6121156 -5.066731 2.1661696 -1.3984118 2.6136703 5.2333946 -0.8231901 -3.5489337 -2.750848 0.91994447 -1.8555028 -0.54516023 -0.63553625 5.873765 4.099708 -4.863159 -3.980092 7.172903 -1.1040359 1.8118426 5.1103153 0.19076976 1.1508851 -0.68305784 2.2591057 0.931914 0.16983539 -1.3048829 2.3259091 0.7397256 3.8106399 2.740584 3.8998575 6.09119 -1.6881092 -3.0669124 3.5865507 -5.3223543 1.7938201 3.0910528 -3.5659647 -0.06604459 1.8109189 -4.235673 1.442434 -0.6154503 -4.923649 -9.146176 5.730474 -0.008047734 3.6422741 0.736912 5.878666 0.5732281 -9.1547575 1.1636225 -1.6515805 0.12364212 -10.086602 4.598458 2.5548606 7.060798 4.497485 -7.007724 4.895992 -2.9306788 -7.3899865 9.370486 1.200128 1.2526255 -4.840109 0.25522846 0.6988352 1.0274656 -1.2419902 4.201441 -1.8898745 6.937341 -6.681874 1.517234 5.8216023 -4.193523 1.5854441 -3.2597058 -3.6822133 -0.7557201 -3.322696 3.9020884 4.12799 -0.25931805 -2.804301 0.6860778 0.921743 5.59585 1.4195268
病 0.62481713 1.2746453 7.997996 5.578768 3.6177125 7.536217 -4.287713 1.8478147 -5.6004043 0.7854276 -2.9349647 -5.6891084 -11.5537615 5.1044183 6.788456 5.9006357 -3.8681555 0.5967903 -0.6504981 -6.999891 2.6017325 4.3278484 4.6194167 3.3109584 4.5492744 -8.024021 -0.58264774 6.862353 1.626342 -2.625711 -5.546887 1.1540898 -7.0090513 -6.1580725 2.0130715 -2.4948409 -13.3265915 1.4204854 3.494141 -5.80692 -2.97864 -3.3572881 -0.48259372 -2.6383846 7.9906297 -2.1175444 -5.4487796 0.25353667 -5.244566 -5.4928985 1.5017464 -0.9622632 -9.142645 -9.455984 -0.6374198 6.0089927 0.30235752 -0.29837406 -3.0100865 8.872591 3.449362 3.733041 3.8063455 -3.2912424 0.39175865 3.410194 -1.1608375 5.61081 -1.5804112 0.101470694 2.288103 -4.1995854 -4.8965325 -5.0564876 -1.2781174 -0.6130396 0.18609162 -4.7713985 6.101182 0.7017746 -3.0767298 2.8623853 -9.27574 5.361429 -1.102914 -2.7753391 -2.041732 -1.3105181 0.7581868 0.64758116 0.4024492 -1.4554098 -1.4107429 -3.3917656 0.33746037 6.6236815 -7.0487623 8.746279 3.8361073 2.143839 3.0913796 -0.111673325 6.502348 3.1380403 -1.4307098 5.496338 -0.35504884 0.10630768 7.8649955 -1.1383328 -2.2473426 2.0552897 -0.3692791 -0.0162094 2.3268566 0.54401827 1.951756 3.1827655 -2.1814773 -4.9242864
天 -2.5501275 -5.259586 -1.1937733 -4.5800376 0.6489439 -1.1154491 -1.6619239 -5.4827447 -3.25328 2.5212023 5.213268 -0.27489996 -1.1052511 -0.13240576 1.8450848 -2.1525342 -4.1394415 -5.136029 -2.872256 -1.6098322 0.8397312 -4.720616 -3.0080028 6.8532143 4.1136603 -2.5912359 -2.819966 3.734807 -1.3367369 -11.581261 2.8447037 -0.7388367 1.7450674 4.0796757 0.44540635 -0.9658037 -3.9745514 -5.2363777 1.2106652 3.1793888 3.0680206 2.6113822 -6.481683 0.12088499 0.23147143 0.108991355 1.3992867 3.3913713 4.3011885 -2.0150228 2.388845 -3.0171316 6.509472 -0.17437312 0.21324654 9.578381 -1.1696657 0.5244511 0.6422704 -3.6905997 0.15545385 -0.31027132 -1.2706206 3.1546001 0.58675456 -8.739642 4.2995586 0.90433717 -6.47838 -3.522091 3.1778653 -0.22689082 -1.8156807 0.49569938 -0.5856691 -1.5793571 8.718126 -6.7542424 5.2165623 1.9268676 6.2165437 3.2535043 6.173397 4.947611 7.2397 -7.486468 3.7593024 6.1810565 7.845342 7.38124 5.1128097 8.215282 3.2135034 -2.072147 -2.077733 -3.7407386 -1.1612884 -4.3195443 1.1956842 1.2767633 3.292335 2.597186 -2.6799538 -4.9893904 1.6460507 4.593071 2.6793542 -2.081524 -0.2534115 -5.5174074 0.7720088 0.6422836 1.9784358 7.101642 2.853727 -4.594616 3.7839115 -3.124704 -3.6783214 -8.083463
可 -3.100707 -0.8890723 2.712849 -4.398885 -3.8187196 -3.063276 3.3877776 0.4534769 -1.1179699 -1.355851 -0.18431106 0.6092056 4.138249 -0.57965624 0.72534436 -6.846385 -2.3270967 1.8177757 -1.3095499 -2.7624187 -1.4379799 0.90229696 0.34707057 -6.338111 1.3163298 0.45449775 -1.0486925 -4.328764 0.72938067 -4.0212674 -6.251375 -3.9843953 -3.562412 7.1187587 -1.7015792 2.0973606 3.7829995 1.3886408 0.70531183 -0.5189122 -0.7139944 0.9923889 -0.84046185 -1.6376845 2.3982463 2.2158158 -0.42059702 -1.052691 -1.7404126 5.4930544 3.9787455 1.5313159 -5.5290003 -2.5915484 -0.062980436 1.5453908 -0.6259365 0.31213772 5.8601046 2.9275997 3.4203064 0.9167596 -5.314053 0.6012623 -4.0267816 4.546814 -4.7312336 4.339137 -3.3234987 3.751255 -1.269179 -1.2118715 -0.7408868 -3.936301 3.5516682 3.1092067 -6.1107874 -1.5798997 -1.720931 2.6651847 0.22792388 -6.475641 -4.3179626 1.2416867 3.6015656 1.5663587 -1.7458295 2.8478312 1.2611583 4.1752815 0.89193624 1.5059079 -2.605919 -1.5174807 0.6272111 -0.45695597 0.6278476 2.749626 2.2877026 8.538083 0.20001821 -1.7028445 0.54804194 -1.801504 0.55573744 -1.0076666 4.429544 -0.37354955 4.9665804 -2.8460941 5.5235095 -2.8288543 -7.4797506 -2.029214 -4.9278 1.8168819 -6.520791 3.1340568 3.9173467 0.8015967
： -0.25822932 2.9036975 6.847737 -0.96540457 -4.867157 3.3688111 0.5878338 2.77466 1.3752998 4.127066 9.608832 1.359072 -2.1662984 1.6835009 0.79873013 3.8958442 0.69386303 3.6738925 1.8902458 4.4041867 -1.4131459 -2.6807327 -4.0458922 0.04571203 2.2724147 -1.5022804 0.21190996 -0.67230844 2.4633908 1.4674953 7.516844 2.8238885 -7.536507 -0.91499346 -1.0072733 5.5630245 3.2200449 -2.9114387 -2.6836748 0.6225956 -2.4453611 0.07122249 -1.8593198 3.7884874 -4.5209527 0.60092604 -3.4892359 -1.8566955 -10.032428 1.9468049 10.128004 -4.1245365 0.96043235 2.8003979 -1.0596905 -2.455418 3.1675324 -4.0762954 -5.339632 2.9782174 -7.341273 -1.6893016 0.17801681 1.7651666 4.082252 0.15529639 -1.3277762 -1.8864695 1.321058 0.7963278 0.73335975 3.2959995 1.0771557 -0.24553955 -2.2745585 -2.7066376 -2.3839855 -1.9315419 0.42168415 -6.266212 -1.9851743 3.952903 -1.0404158 7.9548397 -0.48677224 2.0081823 -3.1628613 2.917031 3.0103562 3.6248412 2.609578 1.4772944 3.7869737 2.5118966 -0.8100413 2.7619588 -2.753256 0.4001157 -4.159141 -4.039245 -3.3449972 5.8156652 1.8403453 -4.1001744 -0.53303516 -0.53984654 -1.6239669 3.4892316 1.3110188 1.5329639 -0.37634605 -1.891362 -1.1472355 -0.4717574 -1.8496666 -2.763031 -2.8316681 -5.904801 -4.9119787 0.4322329
吸 5.344382 -5.3080416 -0.033579707 -2.32484 3.1791456 -2.7604127 1.6175168 9.964657 -3.5879438 -8.875756 -6.2467213 -2.9910238 10.161233 5.9337764 -0.8321373 2.7061362 5.088959 3.1770585 -2.6022236 1.6447301 -0.124213785 -1.1882205 2.0067418 -0.7922617 3.779744 -6.535236 0.87010646 8.206703 -4.0118914 -0.6202372 -1.1619464 -0.24562806 0.19111978 4.7949967 8.007406 5.012382 -4.7541656 -6.477886 0.7966525 -5.9874983 3.9125912 2.6190403 3.1702297 7.9303865 -2.112334 -4.624907 1.4527143 0.6740092 -1.1788833 2.353909 1.8741218 -0.7439001 -0.79030985 2.3983166 4.94668 0.05393381 -1.7566128 -1.1551117 -2.0338569 -1.0926088 -1.3554127 4.985103 0.42224833 7.9418116 5.047738 1.5403545 4.0024323 3.7869277 5.4993176 11.908142 2.5081217 -7.097087 -11.395931 10.641931 -6.465756 10.549276 -0.7863278 1.620274 -4.4525027 0.5224323 -1.3706993 -3.6442647 -0.77876323 -1.7242585 -0.23512466 3.2072732 -0.5459462 -0.35313648 -6.035834 0.47205067 2.5562167 8.41613 0.7040068 4.6836386 5.5047474 1.6796145 -5.1026645 -1.4044023 0.9134673 -3.2583919 0.6860144 2.2274046 -0.550099 12.070651 -0.32726112 -0.13016984 2.0790255 5.483443 -2.7104378 -1.432143 -16.496367 1.9592195 -4.2617693 -0.28181604 0.43541566 -7.562725 -1.3598553 -4.245752 6.5020614 -0.5532391
神 -8.424464 -5.3048053 2.42684 5.7540565 -0.8605113 6.0919256 -5.9735236 0.5569006 6.9280047 -1.366168 -3.883484 -2.7964768 4.006395 3.7838016 -0.073834166 -2.8798018 -2.7681315 -3.1935728 4.606908 -4.033348 -1.8127223 -2.0156791 0.21622436 -4.0873795 -4.23456 -6.034255 1.2731204 0.81338733 -11.16327 -3.4566514 -7.699037 -1.2580415 -0.18304251 3.3461874 -0.5578239 0.16609006 0.114335105 0.7132705 2.8036752 -5.3459086 4.0766463 -1.0540898 -3.3704638 1.0535142 6.4916277 0.31875372 0.42185292 -6.0487485 -7.586793 0.4508458 6.671994 -6.080498 -3.0718274 10.030604 -7.0106626 2.7933967 4.346733 -4.0246444 -0.09185208 -10.835942 0.7362968 0.18677805 -6.9676623 -0.7679022 -4.661989 -7.9567914 5.4689856 4.4727545 2.6793191 -0.7083292 5.666625 -1.772317 5.7231536 2.0979328 -15.074007 -3.982328 -3.02349 3.1000226 3.5425622 3.4138515 -4.185123 0.98014164 1.3275827 -3.220526 -0.64800143 3.817784 6.2611923 -4.8605037 -12.465399 -6.628264 2.2248778 -3.2895675 2.841142 4.6648917 4.458056 1.2911041 0.9872136 6.5304008 10.811183 -3.5921743 6.1248302 -2.620655 6.4064574 1.8020896 6.615347 -6.8080525 -3.1351418 -0.057297017 3.6812785 0.30137444 0.31553832 1.521143 0.4238344 -1.1740377 3.6071792 0.05896358 -1.3568608 0.6866668 -5.0512266 2.0203116
热 -1.7191882 -3.7685804 -1.6604828 -1.9911752 0.2941499 4.6528697 0.8026892 -7.7409573 -0.4646698 -0.5916128 1.4900671 -7.5241637 -4.8113627 0.859413 -3.2089732 -2.6372094 12.225601 -3.139242 2.4846842 -1.986729 -2.9428835 4.575115 -3.8679373 3.446215 4.076223 -0.27055952 0.6041401 -4.231841 0.07137682 0.12610883 -0.8654282 1.0511173 -0.8097382 2.8972242 -0.7629117 -2.4632218 -1.7577986 6.851572 0.63400006 -4.11486 -1.737133 7.0120134 6.919776 9.161225 6.8920255 3.2552621 -0.24004237 1.4308919 -1.9391199 -6.9826217 -4.605597 -0.36756465 -0.3589128 -1.467008 6.3742642 4.1841216 1.2543627 -1.4761298 2.9544683 -1.3503947 3.6092944 11.023649 4.617473 -6.899316 8.773045 -6.9100275 -0.8864502 2.722497 -4.0890374 -4.524955 -0.79728556 1.6665539 -3.8377252 -1.3690029 0.20182854 4.143547 3.1711357 2.0002534 4.7252073 -5.4208274 -1.0584637 2.8719122 5.77996 -8.225401 -0.013718839 -2.293452 0.993182 -0.89272213 -0.13141991 1.0570973 2.3238244 -2.0193112 -1.2218791 5.558275 5.9677024 4.6605635 -8.444149 3.6073194 0.79479665 2.6980686 0.99825954 -2.6280186 -0.17007977 -3.467861 -2.0620017 0.93799907 3.7490044 -2.592384 3.1048818 7.3575954 -5.682901 -3.5415902 -6.8869805 1.8537192 -4.5940223 -1.8124045 0.94193095 1.4372455 -0.15289532 -0.82206994
5 2.1009033 1.7493894 1.9491135 1.1523471 4.0715523 -2.966864 -1.2742333 1.3726861 3.0071094 0.87059 1.8107649 1.1916041 2.3761814 -1.1778725 -0.57764006 0.8693134 7.7909546 6.276024 2.6405637 1.6487743 0.6593192 -1.406311 -0.39604297 -3.001399 -0.14370832 0.30299306 0.8712016 -0.3198029 2.5695086 -1.8619698 2.1462867 1.9156632 5.5991507 -2.1445696 -0.8540531 -0.17611356 1.629904 -0.9325999 -4.0340166 4.726951 2.2893121 -0.93158746 0.1956059 -7.3741875 0.38027793 -2.3922343 -1.3584149 1.1700315 -0.48033446 0.87463564 -0.5685542 0.9961766 0.6009489 -3.5308256 1.7092004 -2.550182 0.24500315 -0.081843734 -2.9384308 -1.3226122 0.43944383 -0.7035433 2.6424885 -0.39972225 0.7275791 1.7928998 -0.6568842 2.5616508 0.4136095 -0.26211846 -0.043008495 2.6808987 -3.2878292 -1.7878226 -0.34082428 -3.3489027 0.09629337 -1.2536883 4.8861275 -0.6601765 -0.09701122 2.3201065 2.405569 -3.0518053 2.0209227 -2.0221982 1.8556745 -1.1239189 -1.3135844 -1.6658094 0.888545 -3.2956724 1.1626368 2.5023704 0.9683043 0.11681671 0.109895684 2.566943 -0.025187401 -2.247596 3.7505012 3.9147418 -1.505668 1.5429549 -2.9325907 -1.3641939 2.2537422 -1.0813522 3.100044 -1.5366501 0.6324021 -0.27220654 2.3939097 1.3480881 0.8844345 5.3939376 3.9206645 1.2221014 4.396935 3.0032926
<unk> 2.6487534 4.2419505 2.165322 2.3564906 7.4656796 -2.3655982 0.7905875 1.0890676 2.7713442 3.1217365 -2.5220618 1.9786468 -3.2512634 3.809826 -0.31415442 3.1801672 4.9568644 -0.48696414 -2.2609084 -3.6634781 -1.2650603 -0.16782239 1.7467155 2.9486444 -0.80790526 3.6746445 2.3164198 -4.0389347 -1.1476917 -4.3517356 0.22659668 -1.2976408 1.1324939 3.414162 2.748461 0.017432507 -2.926493 2.0463064 2.8708563 -0.9226204 0.11183118 -3.3458033 -4.179149 -0.57964015 -4.7055078 -0.77766 4.396586 -2.1205566 4.6488533 -2.5417018 -1.90351 -1.1999507 -5.8299537 -4.174169 2.999813 4.3487062 5.197787 -0.89300174 -1.1724398 5.7114344 -0.72998893 0.44754457 5.4162292 0.9088091 1.9056007 2.77222 3.7249842 -1.4868702 7.1974754 -0.071530335 0.97756505 -0.8460646 3.8998475 -3.3339632 4.136739 -4.0921535 -0.5305617 -2.0160196 1.3791391 -3.7016885 -4.449599 0.2641509 1.3803327 3.3086493 -5.2618074 -0.6276429 -3.4295475 0.1949752 1.099705 -4.165666 -3.652356 -2.5641527 5.678984 -4.307355 2.4460588 -1.101543 1.6904823 -2.1199784 3.0493631 2.3006713 4.3921146 5.853905 5.7303553 -2.1639273 3.8726914 -2.879182 1.0115063 2.1118326 3.0803585 -2.1887465 2.090123 5.449036 0.31967634 -0.26826704 0.117236115 0.6698737 -0.49199054 -0.06622429 5.122632 -1.8113592
反 -2.3129144 -0.21048565 -0.15799622 6.5898447 -4.785291 0.101794176 5.380812 0.35922095 -3.207746 -1.4806366 -4.083192 -4.527458 1.2847582 -6.1954484 11.685771 5.113212 -1.3305781 -3.1764436 0.09834253 2.5126667 2.3039608 -2.1132965 -0.6253451 -6.3217387 7.422379 2.9942386 -1.7910846 -0.26594505 -7.841148 -6.051691 -4.3457227 0.0012371634 0.92022854 5.6580834 1.4675466 -2.3186018 -4.4779205 5.199272 -1.1512245 4.4372206 4.7651916 9.065079 -6.3559985 -5.595687 -6.2366724 -0.55346864 4.226381 -6.6755905 5.143345 2.0323262 -1.0424532 -1.7563922 6.824673 0.55653614 -1.5953705 -5.7520413 5.357507 2.9652815 -0.35329086 1.1623831 0.43605882 3.234758 4.98218 5.015681 -4.644674 -3.9666529 -1.815952 10.551884 5.322729 -5.512962 9.556473 0.34787393 -11.29583 7.3257627 2.7911694 -2.3509622 2.1659548 4.1521435 0.9825668 -2.6407526 -7.1495104 5.267002 -1.8622563 -5.726296 -0.8576107 5.942038 3.1866288 -1.6121794 5.1778812 2.665757 -3.2864726 -1.4649441 -5.504383 0.9600773 -9.562497 3.3388093 2.1492078 1.4235444 0.36747664 -0.5491261 -3.6585824 -7.3604484 4.4454064 6.642861 6.6667953 -0.8316023 -1.6976225 3.5324478 -4.9904537 6.7244315 3.5225556 -5.4525723 -3.838798 1.3969469 0.45353287 -7.109654 -1.2409383 12.774606 3.1937282 -5.863048
平 5.575314 -5.554144 -0.21176556 -0.18156 6.1946955 0.41236162 0.8627407 2.1206334 -5.3925714 -3.4668784 -6.468034 0.2400454 -6.200693 3.8689275 3.9610457 -1.054101 7.3507385 2.5208635 0.40991756 2.302397 -0.025029285 1.9974647 -0.8663763 3.9272022 -0.87212527 11.311803 -5.2166963 -4.193688 6.279597 -4.0985146 -5.0708303 11.83626 3.1632133 -3.9900503 9.985124 -9.098118 1.640851 6.798426 -0.3166095 0.68650466 -8.70285 2.6863358 -4.2856646 2.7414742 7.461036 6.8752613 -2.8066607 4.451214 2.7636023 0.8144235 0.18508305 0.048486993 -2.2886498 -8.24432 2.2651918 -0.3174444 2.5936005 0.36040494 -1.9775099 -0.7723415 5.1004457 -7.311508 7.7937307 3.528367 -0.778948 6.9886036 -3.5433238 0.48434272 -0.5159008 3.2778945 -8.460559 -4.680787 7.3542485 -4.292197 4.2999616 -6.3598685 4.082131 4.3696885 1.4470016 5.5419345 -2.108476 -0.8826071 -4.7751136 5.322326 7.398827 6.0123334 -0.68039256 -4.363079 0.9160369 7.552033 -1.1881901 3.4340518 4.1038017 2.4182553 5.315784 -5.353018 8.29495 -3.2676399 10.019962 -0.65669894 0.27479818 -4.9725204 3.588106 3.652256 6.267382 2.4333587 0.4437646 -0.04075273 2.0951076 -4.2408085 1.8283496 2.1193364 2.28959 -3.6123343 -6.846545 -4.0953856 -2.408246 -6.551131 4.781131 -2.9157495
皮 5.0899086 6.5023894 -4.211026 -2.1903334 -7.669734 5.9795847 -5.640912 4.079702 8.734628 0.42137468 -1.2780704 1.4139129 -1.0250958 -1.0239503 -2.3260024 0.38971147 -3.7174232 9.0492935 -1.459076 -3.6021843 -7.5318723 0.8148272 -6.662151 2.631586 0.40006727 -6.843934 -2.2418327 -0.56334853 -3.1271386 -0.9127518 -0.3873871 -3.0508428 -1.1054441 -1.9771711 -0.24235393 -1.7064861 -4.125853 5.347146 0.118742846 2.3734303 -6.496254 1.4557277 5.889274 4.469057 2.206135 3.3314033 3.6889255 -2.1443558 0.37717998 2.0849009 3.3178315 0.42401567 6.013388 -3.188872 2.3936539 -3.2066727 -2.4050946 -4.3167114 8.028076 -3.0219657 0.6269532 1.871618 1.3869399 -5.655526 -5.719174 4.878705 2.4190001 1.6850793 3.8714767 -5.3649035 0.22286072 5.1645455 -4.676747 1.6379837 1.0975608 6.2856193 7.2887506 -1.797375 -2.28545 -0.75167835 -6.322299 3.9982822 8.403377 -2.6290336 -5.086914 -0.0010112586 7.7988505 1.9020245 2.8507748 -3.1802607 2.2679734 3.235594 4.746258 -3.6704984 -4.645665 -2.430132 1.0212127 0.83908165 6.7280564 2.0925841 3.6637974 -5.232276 3.1731184 2.8800669 -2.255606 -9.212326 -3.4282413 -2.4132376 -1.2326924 1.4181615 -7.9530954 -2.8117845 0.31880036 1.3696088 -0.39844388 -0.70218515 -7.1050944 -3.892852 2.9450223 -4.7054434
4 1.1818954 0.59321827 1.5713612 0.769507 3.5699453 -3.21603 -2.2869065 0.69609386 2.7536325 0.17011514 1.0811421 1.6014564 1.2854371 -0.5120081 -1.4952605 0.5357049 7.0696235 6.5141206 2.7356634 1.102386 1.213208 -0.47607067 -0.51087564 -2.2891834 0.6734756 2.358936 0.5297107 -0.3996998 2.2033136 -2.3613122 2.4582536 2.0647018 5.785449 -1.3676145 -2.2513535 0.9226799 1.191289 -3.128305 -3.8887715 3.6942973 2.3514879 -1.226819 0.6010831 -8.049362 -0.899003 -3.432194 -2.171764 2.3386178 -0.47585738 0.45607892 -0.4425434 0.6826217 0.7609276 -2.962754 1.3391781 -3.5392673 -0.579995 -0.1566777 -4.134991 -1.6213967 1.2126317 -0.8160239 2.476587 -0.62095535 0.48506415 1.0255878 -0.4288503 3.1183746 0.6722233 -0.19562669 0.406886 0.477452 -1.8725697 -1.8288643 -1.975094 -3.7661338 -1.4170812 -0.44265252 3.847602 -2.0312274 0.47356915 2.879848 2.741136 -1.6837465 2.6241946 -0.93267953 2.507388 -0.82629246 -0.86450577 -1.1069318 0.99989724 -3.0305312 0.7234142 2.3608003 1.1151439 1.4562865 -0.70181614 0.7698088 0.3514333 -1.2522101 4.839019 2.650695 -1.6370914 2.1785583 -2.3192623 -1.5545124 2.35138 0.0649035 3.260252 -0.51737624 -1.5467775 -0.2442865 1.3317915 1.7622557 1.0242771 6.0240808 3.2765365 0.95241535 4.2332745 4.0501375
痛 -6.2505007 -0.3181331 -11.236362 -1.3046472 -5.0742273 1.8751627 -7.41674 3.0132568 -3.6417997 4.643183 -0.92065823 1.2867429 -5.3821054 -4.177512 -0.15996648 -1.7162356 -6.7069893 2.6529715 -1.2393163 -0.7866187 -8.729719 0.8060227 -3.9544206 -1.631179 -2.8244588 -1.6160023 -0.4883729 -0.9554238 -3.225244 -1.0890868 2.6072319 5.666068 -3.013308 -5.952774 -1.4017875 -5.7287855 1.3959811 -3.6478105 3.1607628 -3.50574 2.4721966 -3.4093525 7.858712 0.65241235 2.519407 7.7812324 1.5863924 0.8254097 -0.37257794 0.5260821 -1.4890071 -3.1870587 -3.5689707 2.6977124 9.962796 -5.2002826 1.8420876 8.300712 -0.66441166 -2.2753365 1.1007155 5.12996 1.7619867 2.1648257 7.7072654 5.1393027 -0.977182 -0.8719496 4.490263 -1.5767888 -1.7934872 -4.2724185 1.6263492 -1.037023 -1.5527307 0.6562607 1.2363243 -0.43848637 2.2943459 0.2933749 0.3890402 2.2701252 -6.793245 -2.8044546 7.308873 -0.2512535 -2.3111598 -1.6447424 -2.1637487 -3.3734 -3.1011202 -8.085354 1.1263199 -0.7914936 0.60426503 3.031866 6.17572 -5.059544 0.67182 1.3996723 -3.5599985 -7.9114547 -1.3685212 3.041715 -1.1774842 5.2378907 7.029128 -10.092343 2.6213086 -6.5148067 -3.264041 -0.42139193 -7.4203596 -4.498686 0.0074495496 2.2895732 0.35183492 -6.887677 -2.0346403 -5.525082
肿 10.80106 3.5724385 -1.2851235 -6.566366 1.8204702 3.9236465 3.530953 6.048793 7.234767 -5.7301273 7.3283887 5.6249766 1.4866388 -1.2167664 15.206458 2.7603807 5.8314595 -2.3430326 -4.790128 -3.3670528 -5.4468083 8.175622 3.8448966 -5.8744955 1.0738366 -1.6500477 3.5248647 3.7818894 -0.71712244 1.0228245 -7.8671765 -1.8267497 0.54036623 -1.432935 0.4798664 -2.8790588 1.8199754 4.466849 -2.2324176 -0.46029648 -7.5182347 -5.8784966 -0.9326471 2.545153 -6.2348247 -8.587354 3.66264 4.35311 3.418908 -0.42705134 2.559851 0.38263553 -5.4480357 4.056108 -1.1780986 2.3169658 4.0998826 -0.06774329 2.0177019 -0.35116106 0.7564375 -3.2430499 -2.6171637 4.8457785 -3.7664537 0.64354074 0.7322934 1.1165792 6.0841517 -7.9263897 4.804875 -2.5421975 6.6908946 6.783996 -0.5636845 -4.8806148 1.740425 -2.7293408 5.4336267 1.8284036 10.222595 -0.11995333 -0.22526297 -6.1652317 -1.4381702 3.5988753 -2.2400436 4.3107305 6.555629 4.6741467 -9.237972 -5.240071 1.0838925 0.51686764 2.5795753 6.227729 -0.64520544 -0.68038875 4.651455 2.871409 -6.585673 -3.5625858 3.3430247 -6.826542 -1.1353393 8.514187 2.1859002 3.3077867 -0.84177035 -1.247917 -5.1510973 -4.9065843 -12.90959 2.800308 -5.0404816 -4.2435026 -2.6302893 -11.217917 1.4472233 1.8862101
患 -8.691381 0.036890138 -3.109224 -3.8085716 8.936757 -1.7711241 4.4512086 -3.4670413 -0.057841603 3.024235 -4.319135 3.4137125 -0.8996959 5.2872634 4.9219956 0.5394923 1.0636574 -1.0864848 3.8128145 -1.4675783 1.074703 1.0151395 -6.988502 -0.95401645 -4.2727327 3.616486 0.6010629 2.1662621 -0.031990148 -2.7082887 0.16452847 3.0943582 2.7966788 9.942743 -0.663308 2.8474314 1.497265 -0.6302044 5.50917 0.6660024 4.724791 3.3275762 0.96691924 0.70729524 -5.662009 -1.4653431 -8.731871 2.0613353 0.15042235 -4.9526916 0.704066 0.84944826 1.3190966 -1.5353616 -3.5502548 6.3544564 1.5096765 -2.087288 -5.08986 2.3403022 -0.9035464 3.363424 -4.978476 -4.682041 4.2277126 2.1754596 1.8151299 -1.9104793 1.4501407 -2.4624043 -1.2960402 -0.73867935 -5.0196967 6.731101 -0.42286 2.8866458 7.591656 5.676793 0.8081429 2.4454277 -5.0751553 -1.6198478 -0.1378855 -0.33913028 4.217588 1.4760466 3.8026369 1.8946334 9.543581 -3.026349 -5.3021684 3.2605224 2.6122365 4.662431 -6.351335 2.923684 0.053514875 -1.3867224 6.8951097 1.8938723 -0.08937545 2.6347528 5.40953 0.2424527 -0.84369546 0.15527 5.5211253 -2.5457659 6.054954 -0.643157 -1.8652937 1.6013439 4.497567 -4.901391 1.7531581 8.0098915 5.136398 -2.1111271 -4.7373357 1.4317645
前 -3.2585406 0.78909713 -0.7593735 0.3035587 1.5788592 -0.7106203 -2.1010065 5.0435343 -1.1490045 -7.4898725 -0.37032306 1.4542004 -0.6817974 1.779291 -0.30336782 4.537604 0.23326503 2.2640681 4.3447523 5.9278345 -10.581515 1.2814792 -4.955872 -5.7609477 4.964968 3.7628021 -9.330798 -5.362816 4.072694 3.5688896 -2.493396 4.242921 2.1725512 5.894768 -0.2757853 1.0329797 3.5792665 -0.52063704 -1.3153869 -3.3306983 4.6225686 -2.1329646 -0.079625346 4.3578258 -2.0755196 -6.1590805 -4.420761 -4.8839016 0.8839016 -7.3246493 -1.695161 -1.3795142 -2.4839625 -1.9883705 0.6832932 4.2595973 5.7800965 3.6657207 1.2242218 5.6048865 3.539893 -0.53060603 -0.4106991 -2.3072345 -0.10197403 3.9120193 3.0858343 -2.519306 5.5302644 1.518377 -1.3958771 -2.0983164 2.600818 -3.176596 -6.4034863 -1.3029069 -4.3820767 -2.3753812 -1.9173495 -0.77485204 -3.0970712 -3.962865 3.1018806 -8.839751 1.7584531 -1.8225377 -5.09553 1.253933 8.448868 -4.1942596 7.9574604 -0.121706866 8.1724 -4.8547783 -4.5972276 3.4872434 2.1972642 3.4794478 -1.7571044 5.114636 7.447804 2.1043303 -1.0022788 -8.398802 -4.875228 1.7453787 -3.1091838 3.577069 -2.5309324 2.2835872 -2.4521592 0.112426154 2.480666 -0.46826893 2.7414205 -1.3974781 3.3982031 1.4961563 7.4332824 -3.3867464
明 3.2904487 -1.3249602 -5.4948735 -0.094776124 4.412603 -7.295092 -1.9426072 -2.1990364 6.4818387 -3.9324992 -3.1955385 -1.7439082 -2.3206532 -3.4701345 4.0299363 0.8470115 -2.4876318 2.0758398 -6.4422374 -1.5627512 2.4910033 4.947877 -4.902566 -6.6599503 -7.845301 -1.9111308 -5.277705 1.1095556 -2.838877 -1.9545822 6.147489 5.7398953 5.659364 2.0976944 -0.8129007 0.43022415 -1.0508842 4.0110292 0.35751164 -2.238758 -1.521451 -3.198532 3.1011453 5.8976026 -3.333791 3.6040397 5.3833694 -2.8527563 -0.8608713 -4.612832 4.3879995 -4.0191545 2.652847 -4.142916 -4.5238175 -3.9781728 -0.942427 -1.4701446 4.1113524 4.084376 3.3784025 5.3781853 5.1665635 4.2407613 4.4409895 4.979397 0.85940695 -4.3871756 -1.0630274 7.370939 2.4024966 3.6029873 -0.771674 -2.555879 0.7856044 1.174222 -2.0894437 -0.007497458 4.4012113 4.2315493 -1.9365916 2.001245 -0.48631448 -3.9609222 5.734883 3.3555026 2.8509157 -3.0191605 3.1905096 2.843297 1.5904609 3.3398073 2.945881 1.2977792 1.145863 8.399474 -2.1437798 -2.1032085 -7.2785654 3.6078665 -0.5364294 -2.7013829 1.1420199 -2.2368467 6.5610323 1.6970768 -4.519116 2.1158803 4.1561584 -5.1166973 1.0312682 -3.4112425 3.0617173 2.8922956 0.32877648 -4.259727 -2.586035 -0.2822249 1.8527267 4.446782
/ -3.1989484 -2.9468157 1.0482657 4.2324286 -3.33563 -4.080141 -4.6143456 -5.923888 -4.4469433 -5.0172033 6.6620812 9.430899 -3.1855712 2.962573 -2.0244272 4.9496293 3.674609 0.37851536 0.029433796 -8.345258 -0.6238734 3.284783 -0.71090657 -2.1160383 2.7777336 7.273062 -3.693708 1.2416639 5.2553654 0.1552955 2.7331653 8.569268 3.783195 1.5547892 6.870402 -3.5720632 -4.1670184 -4.8545966 2.467371 -3.229017 6.571269 1.6412888 4.033899 -3.4656146 1.5461069 2.5372803 -2.030671 -2.1261382 -4.6224756 2.7690208 3.4012504 -2.17184 -1.5595866 -5.1683397 3.2291443 -4.170502 0.2176591 -1.7227036 2.2203436 -2.922083 -3.767967 -1.8341345 0.36678967 2.7559037 1.9185987 -1.0259783 -1.6679227 0.08199272 0.88772243 1.6612791 -1.9232593 3.4101918 4.53376 -6.75961 -0.37935546 -1.0063169 -3.029589 -1.5808032 6.5569596 -0.9513399 -0.62322444 -1.1141832 1.2782142 0.36605752 -2.8059764 8.541761 2.2007108 7.9038386 1.075333 -6.4296217 2.288119 -2.9730594 -2.449371 3.0711207 -2.0015638 0.6963953 2.3497708 0.82729936 2.0903394 -1.7277943 -5.42974 8.374979 -6.4760294 3.3351324 -4.1784363 -3.521167 5.3191285 0.11370499 -5.0831013 -0.15820087 -2.7163439 -5.314548 5.478968 0.060672186 13.579244 5.345534 -5.3406305 5.1840305 2.5855105 3.8933115
后 2.0325315 -2.1880538 -2.906374 3.3586812 -0.30621043 -2.939164 3.7972093 -3.0992827 4.4773254 2.0975564 3.8123412 -4.6618724 1.5684017 -0.123531856 1.4024245 1.3008833 -0.8338932 -7.2986355 5.889443 5.2067885 -5.3496556 -4.4680696 0.7305108 -0.68787247 -0.79479337 7.990431 -5.218943 0.64828444 -3.5621362 -2.0748165 -3.963666 -2.467016 -5.3898697 -2.1511903 -5.5933204 -1.0922645 5.1082773 -1.0877159 0.5815702 3.3176823 4.76665 0.8474358 2.6377378 -0.55775845 -4.190189 0.17737508 -2.9989758 4.4251256 0.73163205 -7.9174128 -0.5373671 1.5738385 -1.4639953 -1.5307009 -3.422524 1.3041129 -2.033483 2.5014296 0.15397634 1.0365628 1.7609874 0.92298573 1.2337458 2.0785992 -1.4338276 -0.1627771 -3.336649 -1.4581331 3.7865942 0.02802694 2.2649095 3.2263126 1.660968 -1.073516 -0.15591474 0.26114437 -2.5465586 -6.3960023 -2.0181835 -0.7202407 -0.93561965 1.9751055 -0.029510614 -3.37137 -1.023534 0.23838973 -4.8465986 0.14592713 2.3219862 -4.9895225 6.727757 4.5091248 7.821045 -4.814092 1.7104696 -1.2201635 2.2550159 1.382312 3.6213858 4.3351326 2.6913521 7.6494613 3.9006724 1.8733832 -4.535169 -3.1243305 -0.57168764 -1.6757578 -2.0950935 -0.30650914 -1.0867362 -0.6387443 0.41427875 4.279952 5.716429 2.1959283 -1.01014 0.7470137 -2.8444552 -2.8847063
便 -7.3568068 3.3274276 -2.9674444 -4.228878 1.0933462 -2.4071274 -0.98993105 4.560659 -0.46531504 -5.427083 -1.1271592 11.652113 -4.08398 -5.6838455 4.9657946 -0.09656729 5.657753 -0.062321644 -5.832652 -5.339377 -1.9155241 -2.4351635 2.989691 9.688171 -4.445993 0.37236968 -6.477127 1.7831131 0.4059302 -2.4428897 -0.74406326 -1.483843 4.8347 1.1915447 5.265673 -1.0784423 5.7180066 -1.2419475 -4.6518884 -3.7126527 -9.0079 -5.3656464 -13.119757 -1.4029709 -1.4543105 -2.5528257 2.9474595 1.8724701 -1.5431439 -3.1934912 -3.1324277 3.8277617 -7.795101 6.647115 -11.521682 -0.3248652 -3.310635 -7.9765344 6.907847 -6.00411 5.9533954 4.9413276 -0.7510562 5.619351 -9.853158 -1.8100886 -1.4742562 -1.2298802 1.8069322 -3.5721264 -5.1926556 0.103422515 -3.4191394 -3.90893 -3.0946288 -4.801769 -2.3958714 6.773217 -6.8971715 -1.3070456 3.4717653 6.8638887 -4.085227 -1.9413623 3.1153991 -9.772465 4.6957593 -0.083091676 -3.9668834 -1.6600897 -2.7985916 -5.033818 0.13913779 -1.6373954 -0.21569866 1.2721653 -6.6752825 -5.015807 -0.17980875 -5.827997 -4.055605 -3.1348712 3.2688854 -0.9344766 -1.199974 -3.3371456 0.118789695 1.8092717 -4.648245 1.3861871 -3.241603 -8.185669 -4.6922994 0.73364407 1.3189027 -0.61752164 -2.3760266 1.2733006 1.1098278 0.5357636
现 1.2058439 1.6438894 -11.81781 -4.8111973 10.118733 -0.7372547 3.9750562 -5.3087807 -0.55836415 9.832666 -2.508641 0.27565974 -5.5522637 1.5314667 1.954898 1.7171301 -2.8372462 1.7365463 3.6718986 4.012459 4.5974984 -2.4198794 5.3148384 2.090423 0.586406 -7.7149177 -3.1345117 -5.0850463 0.55470455 5.87273 -2.9081872 -5.3267913 -0.7277139 4.017725 0.88944113 1.2987927 1.2842561 2.9033294 -0.2924258 1.1744788 -2.0445743 7.754438 8.184251 1.0657886 0.19111872 7.9331827 3.2609687 -6.47081 2.4556592 -3.6442273 -4.931849 -10.367095 -5.8647623 -3.6883824 3.3256965 3.1196227 -1.5699747 3.411508 -2.8593976 -1.9650927 1.8460518 -3.536939 -8.0161085 -2.934605 -4.618779 -5.3974986 -0.9945123 -4.670257 -1.4598955 -6.791899 -2.0064406 5.741397 -3.73733 1.5801383 2.1812277 4.1895323 -2.412374 -0.6078692 6.326457 -3.6710136 -0.60896635 6.6284533 7.792654 3.0593064 4.373906 0.2914792 -5.5511374 -3.40239 -2.8023815 -1.097157 6.0464973 -0.48035246 -3.2135851 2.57768 0.254763 -2.4061298 -4.918965 5.0979915 10.565641 2.746586 -4.5302706 8.115595 -1.9399438 1.7861645 -3.3208458 0.813662 0.63388854 -3.45863 7.6288424 0.029395904 2.376079 -5.6165195 -0.20053798 0.7939007 -4.74383 -3.5298765 -6.9665623 5.4579215 7.656311 1.525061
不 2.9651542 -4.448753 4.5420127 0.4176136 0.13424219 -3.4336293 1.2434584 -0.8764402 1.5380089 3.5184295 -8.678536 1.4474231 3.5685523 -1.6883844 2.817775 1.2868042 1.2644936 -1.1610202 3.3696673 -0.8381706 -9.560113 -3.8924227 -0.7446231 -1.5770341 2.4102826 -4.123603 -2.1758277 5.2478642 -0.67516685 -2.5274065 -2.6058414 -0.056257095 -8.398662 6.4733777 -2.9007027 -0.76345056 4.171623 2.7587926 -0.27620894 0.8066424 2.1430137 -2.407551 1.5990814 5.194268 4.058622 4.120797 -2.5902863 0.23389624 3.1519694 -0.67183983 -1.6063198 4.2381124 -6.4523845 7.588988 3.0168133 -1.0631864 -0.8538831 1.7610427 -0.4667522 0.9315388 1.6324931 0.96233046 -1.2682287 5.376902 -0.07644754 -2.4432542 -6.87098 2.3266897 -0.35886478 -3.627075 -6.719557 -1.5122265 0.04778292 2.5141563 -3.37337 -2.3670418 4.1693764 2.3757484 0.8949275 -6.8260117 -2.7250986 0.39466205 1.038854 3.0974388 6.0981693 -4.413072 -3.1623154 1.0618911 -0.95427155 1.8751414 -1.4034488 2.2123659 0.96362305 -0.90749246 0.9377785 2.312896 -0.7514668 4.92407 -1.729223 2.1364527 -8.659104 -5.101564 -1.2365 5.110098 -3.864002 -3.6859715 -9.792566 4.153309 7.399214 -3.7921877 1.5154712 0.73427397 -1.9061705 2.3324609 -2.3919184 -1.8920375 -2.3375552 3.1286423 2.474028 2.5368392
显 -3.2516427 -0.09592935 1.4254214 -4.483139 -3.2456553 -1.3287954 5.63948 2.2388144 -7.4040914 -1.589957 3.7706892 4.2111382 -0.9005367 2.357727 1.6838717 6.621472 -2.2925866 1.0839431 4.152937 5.271305 -7.090278 3.5956764 -7.6430807 -2.0391872 6.6889405 3.8699577 6.7820835 1.7321229 -2.7299159 -0.8801406 -0.2655975 -5.260424 -6.07291 -4.8868504 4.4156847 -3.7967007 -0.027989272 -2.271308 0.6462947 1.1205765 -2.829208 -0.43056154 -5.5764065 0.8905513 -0.31445268 -2.762107 -5.002794 -6.562165 1.2361575 -1.1390663 0.8912764 6.6654925 0.13452858 0.70862275 5.4393306 2.7821026 2.1718225 3.9724522 -4.2584686 2.1489253 -2.6865053 -0.248793 -6.890056 -1.9362216 -0.31859642 3.1012478 -0.58263254 -0.23524253 -0.12392728 -6.7457423 -5.5967565 -6.4300623 1.7425504 0.2276911 1.9520146 1.8028618 -1.6838127 -1.3508599 -4.652097 1.3248878 -2.2138813 0.8704879 5.142942 2.2975268 0.9195394 -1.6676339 5.3012877 3.8889513 -7.844574 1.3027819 -0.20146535 -3.0990698 1.2743495 -0.52158165 -1.9399552 -1.8218712 0.5881191 2.276743 4.4367757 -6.1562634 0.5078941 -0.6188815 -0.162255 -4.531432 1.8286219 -0.5891881 7.526016 -5.1853075 -2.5555387 6.6178145 -6.232315 0.89104 -3.7162342 1.6560786 -4.033635 -0.75627005 0.4966944 1.9014049 3.4083488 -4.6371927
- -4.8238516 -5.0192847 5.511526 -1.0562179 -1.4609106 -2.3393407 -2.7171445 -3.555332 -3.790415 -2.9923863 2.1916103 1.4973449 0.53371084 1.4982314 -2.8727605 -1.686794 -2.771103 0.30229416 0.41209227 -5.8540044 3.3706665 0.7791508 -0.8604076 0.85292995 2.40999 2.9675248 0.54466283 -2.1069083 5.118221 -2.9504685 3.3649309 1.8266306 3.2079854 1.8458599 -2.839449 0.71071655 1.3292722 -7.040873 0.34069672 1.9729929 0.63025814 4.5487714 -2.1743314 -1.5977691 0.24673338 -1.3154455 1.2895962 3.2953904 -2.0768728 -3.3416984 0.93848425 -4.1368656 0.7854344 1.7724876 0.45864204 -1.320658 5.846058 -1.0862 0.044066757 -2.0615122 -3.4417489 -3.4678674 -0.06419299 1.9608499 0.52187216 -5.9462466 4.5705643 -1.555068 -0.41910142 -3.6945333 1.3122272 0.5825518 1.0711036 0.39822522 -3.2673893 -5.5003614 0.81936276 -2.3225381 4.5972705 -0.6886263 4.0533347 1.5679126 3.0674336 2.8115757 0.54317105 -0.24176762 -2.856939 4.3423386 7.594997 2.061718 4.0244355 -0.4820143 3.8116539 -3.0591483 -2.977525 -0.2779186 -1.2887512 -3.0001373 -1.6523805 -2.3433688 2.7097867 1.4636708 -1.8017396 0.022446277 -5.416734 1.9329263 -1.896796 -1.2886547 0.47955692 -2.2770207 -1.013577 -0.4448606 5.641384 3.0028517 4.306152 -0.21786481 0.6008837 -1.0699036 4.163628 -3.0465696
部 4.669235 -2.3603458 -4.8971214 -2.9896243 -2.0760026 -5.11471 -4.669641 -1.851868 -5.8488116 -6.4365273 0.017069632 -0.9152634 1.873307 -4.9722705 -0.6084284 -0.36135 -5.5878887 2.7894216 0.702135 -4.089816 -7.7234387 -1.930962 4.2834196 -7.6635265 -7.9723997 -4.8050513 1.7640094 0.8447338 5.309525 -1.8013438 0.7600849 1.3037592 -2.9446175 -6.1552153 1.0363667 -3.0475118 3.5548916 -0.8123917 3.4133127 -5.683292 5.29085 -2.0423317 9.172832 2.1703367 -4.7567577 2.3505545 -0.9586938 0.24617842 -3.2692218 0.66774267 -1.1727511 -4.6952314 0.26995853 2.2791998 3.33771 -3.9990354 7.155278 3.4715762 -8.476021 1.1429754 0.41685373 9.014505 -4.7478676 -0.20341517 -1.1661378 8.407833 4.128621 -0.046867993 0.013736758 -8.102224 7.090695 0.63574475 4.796155 0.66372764 -6.2148604 4.851461 -8.749798 -2.8600168 -2.503221 -3.0574775 5.2773294 0.8903629 -4.8560863 2.9225485 -4.043571 -1.541528 2.4277277 -3.32824 1.0984612 7.0679197 -1.2130084 1.8064222 -5.515323 0.86317277 -3.9339259 -0.73425615 -0.14017643 -2.0420039 1.5467888 0.62596 -1.4356307 -0.8268031 4.0022044 -2.1713493 -0.80090135 -5.7240067 2.5932534 -2.461339 -2.681234 0.38787705 -1.9457917 4.309207 -3.072475 -3.1502104 -0.66061336 2.1908636 -0.54553336 2.2173867 -0.9746443 -4.0831566
“ 3.337235 5.988348 0.27671146 -3.863692 -1.6513659 -0.33043736 -3.0811176 -4.3154097 8.002447 1.8023419 4.275358 -4.601588 -0.5667642 -3.1236427 -5.147491 -2.1621692 -3.708245 -1.7337024 1.0045393 3.928989 3.1697571 1.8547941 -2.3604093 -1.4966149 -2.475768 -3.9688873 10.328776 -4.213849 -5.268847 2.1384537 -5.1637173 -0.41302782 5.230853 -2.0621324 -4.605285 -1.4364885 1.7432469 -2.4142797 -2.0807981 -1.4492176 -2.4526868 -2.487637 1.7985595 -3.3688672 3.852441 8.58143 -4.3555145 5.623698 -4.070888 4.803011 -3.2393734 1.4807987 1.9070024 -0.053574152 1.8550119 7.2007775 -5.687893 -1.5746233 0.24243025 2.8560047 -9.160465 3.3239768 -1.634067 8.474382 0.9096225 5.5755997 -4.555627 3.1475708 -5.9337506 -3.520847 -4.209757 -0.54188293 1.3157328 -4.0494323 1.2574707 -4.4355216 -1.8629456 -1.4087732 1.2586014 6.4248695 0.14149563 -1.2295233 -3.8303657 -1.0368028 -3.4920788 -2.999383 -7.855647 -3.7794502 3.2034655 0.37712958 0.123196244 4.4287586 -3.8855388 4.450214 -5.5281744 4.831995 -0.11170966 3.9113302 -2.03509 -3.4666622 0.35730636 1.6363641 1.8015352 4.019172 1.478495 1.0764318 5.049489 7.715607 -0.19863833 0.614076 -2.726272 0.32685047 4.1613603 -5.707364 10.044177 -1.2856693 -4.007674 -0.2493686 2.221592 -0.866385
； -4.09687 4.427045 5.545558 -3.789119 3.106993 -5.1201024 2.9126036 -0.77397674 0.31315404 4.481113 -4.1970205 -0.07849819 -1.4597778 -0.72102606 -4.339372 -5.3028684 -2.07471 0.2609465 3.794002 0.2969809 2.0089948 0.24095869 -1.1576414 1.2915814 -0.41439736 -2.0618174 3.1231642 0.402984 1.9145195 1.2324156 -0.9597899 -1.6500156 -4.4524536 -1.9382951 -2.7660851 2.3512046 5.4140477 -3.2275372 -0.39660808 2.1103773 5.2181706 -4.365397 5.0591655 2.5249016 0.26747054 -0.17988734 7.108852 0.24480022 -1.8244889 -6.456698 -2.5655892 2.9091947 1.3132944 0.1882336 1.9177396 -5.634677 -5.5296173 -4.663754 -4.9533505 2.8442333 3.8912206 -2.4630842 2.4108274 -2.0753524 0.35630798 3.1702352 4.8732367 2.106278 -3.582787 1.3282331 -6.3727536 1.9747292 -2.9940116 1.2704141 -1.5176294 -2.222171 6.6591163 -2.4296062 2.103098 -0.85577464 -6.1118917 -0.22162575 -0.5433014 -5.414923 0.08178272 2.493361 1.3668522 -3.0871704 -4.603786 6.165181 1.4728265 -0.55829245 -3.52323 -8.32881 -2.7582808 -1.2245821 -1.7258823 -9.089056 -1.6663709 -3.82505 -1.5672926 9.408195 -3.4395437 5.470122 3.2752585 3.0909064 0.26698372 0.79787683 -0.40149313 1.7234148 -5.432543 -5.463117 4.1356106 0.033536285 2.5600173 0.85727936 0.10898091 2.4409332 -2.9828892 -0.9484146
” 4.8330097 -1.2720369 3.587927 1.4040883 -4.980248 2.4163938 -3.8779178 6.2756314 1.773615 3.717856 -4.7010403 4.664092 -4.476384 4.7635 -0.12762186 1.3655126 -5.4831753 1.4156226 4.115249 1.1821674 2.317196 0.7391518 -0.19935502 7.2175665 -0.52135086 -0.31770208 -0.14415094 -0.32049218 9.386713 3.8040273 -3.888397 -0.6553493 -0.8109996 4.7915583 0.72107357 5.1807666 5.1003003 -0.29775375 0.91949457 0.5343773 2.456293 -2.2998383 1.7431804 2.3906763 -1.1183096 -3.8237536 0.3033386 -2.8106887 2.3769717 -5.125464 -2.3960786 2.0145228 5.6810503 1.5939844 -1.4824579 0.15932782 1.4476101 4.0454984 -6.308609 1.6645081 -0.4372924 -4.0921054 0.27551702 -3.914696 0.8479127 -9.550599 1.9520364 -3.4037402 8.921403 7.816511 -0.6541229 2.698854 -4.1048365 1.429364 -2.3346705 7.808721 1.0402844 0.19484279 -0.020419512 -0.2674865 0.12355193 -3.0354052 -3.790365 4.418508 -0.73931336 -0.36189133 -0.1616357 -4.311735 -0.16353649 -0.5066172 -3.0578704 -5.28537 0.09174532 2.2353377 -8.362873 1.9574698 0.0029508641 -2.0573072 1.155932 0.50948143 1.9687788 6.7287908 -2.696758 -2.2448149 -0.4346745 -1.6198163 -0.8780435 -0.63552576 -4.2937527 -1.0048614 3.8489351 0.54365814 -1.1713896 1.4609056 -2.828994 4.8349338 -2.2052927 -0.77703935 1.9621402 5.7155433
呼 3.5766048 -5.049952 2.6627033 -4.3632684 2.5561767 -6.482831 -6.3800955 -4.432128 -3.2088556 0.29983798 -3.0825167 -2.3481352 4.5754375 1.299911 -3.3705084 0.6302131 -3.0383625 -11.918709 0.50764924 -1.9469143 -3.0822563 1.3490044 -3.390884 -5.8947363 -0.29420048 -4.8586273 7.0017715 -1.555629 1.967581 7.529913 3.1805675 -7.1749563 0.5147772 0.78563046 -5.9598255 -5.6160383 1.4051791 2.876032 1.6483753 2.147873 5.1834984 -7.3291826 -7.8483944 1.8310314 -0.23078895 3.6599135 -1.2758354 -4.83899 -3.718408 3.561807 -6.119924 -0.8801914 1.1786397 -2.2737195 -8.0138855 -12.638322 2.5235734 -6.438025 -2.2508857 -7.7823167 1.9454172 -0.9544865 -3.2307236 -2.205361 -1.9299382 0.50094354 -2.3151588 4.8187594 -13.955788 1.6365575 1.2621896 10.793726 9.467162 -1.8255686 6.7279305 -0.09527059 -1.8572899 -2.0503983 5.4888854 -1.9885484 -4.9507456 -5.114604 -2.1299124 -4.4923587 -3.9897635 -2.2142882 8.701952 4.518908 4.426163 3.588587 -2.371186 -3.3989997 -3.1545675 -6.834106 -2.91713 4.228679 0.85283947 3.053108 5.7058473 1.6904333 2.3478568 -8.929596 2.556239 -5.0339737 2.2692866 -1.9518929 3.3606026 2.2726212 -3.2116096 3.5676694 0.91093373 -0.083210245 4.307879 3.189926 -8.774629 4.057143 0.20526278 2.3608432 -4.3735805 -3.5954225
触 -0.7846512 0.87012535 -6.2016306 4.321088 2.939817 -8.172541 2.1638892 0.07898516 -5.661663 -3.0292463 1.2855151 2.4028788 -5.473998 -8.364496 1.6501876 -4.684905 0.09576661 -1.0901012 -3.2697105 -5.736885 -3.8503847 0.0026512255 10.757679 -1.6800773 -1.1545455 -3.1456525 7.282178 9.640713 -2.7851448 3.5366805 4.99168 2.6618748 3.6665425 0.31455782 3.6461968 -5.1489296 -4.640507 -2.030126 -2.0734272 -7.432877 -0.24051696 7.5037413 -3.2115796 4.141613 4.036938 -4.271259 -0.11083523 -6.1997733 6.411271 -2.1732297 -4.0661917 -0.20035678 -0.010611784 1.6472441 -0.048115492 -2.678283 -1.0812325 -2.4272997 -1.8314061 3.8416831 -1.3381121 3.4679801 6.8093405 -4.0560355 -8.062654 -0.717841 1.9496694 -3.4325373 5.1988025 2.0752323 -4.275488 -3.4210894 6.1263666 6.4360266 3.7319462 -3.3593574 -1.4996176 1.604625 2.9652812 1.8145847 3.272694 2.5048282 -0.114389755 4.1992817 -3.348789 -1.5401928 -0.37213916 6.3289843 0.6301207 -14.469187 -3.0435421 3.2811103 -10.986854 -0.48655197 -5.435919 -1.2909672 -3.3495107 1.7311016 6.8280144 2.645014 1.1652151 -3.853506 5.328546 3.9402432 5.3723497 -5.3546405 2.0877988 1.0309014 -0.17204423 -5.3205104 1.9924248 -3.5705974 -0.15502122 4.1145577 -0.8936191 -0.3924951 6.1682763 -4.143563 0.59158033 -3.5354733
有 0.021236442 -5.082825 0.48040774 0.9948615 2.3122523 1.5090419 -2.2030737 -3.9880383 3.1189725 -1.8200233 -4.5016294 -1.4656287 -2.5469592 2.4667544 -3.87967 1.4178065 -2.212923 4.101386 -2.2291603 -2.150959 -2.6298544 2.3126214 6.548976 2.7775428 -3.643542 4.7262015 -2.918797 -1.8397118 2.8235202 -0.017168628 3.4108996 -1.2826694 -7.69088 -2.6741655 1.784266 4.8215504 6.491582 -5.3424735 -0.27623746 -0.31101468 1.0669366 2.1120093 0.96895164 4.290014 -6.420602 0.44555333 2.4375513 -6.7126436 -3.3121803 0.7525915 -1.4089525 2.3223057 -4.07418 -6.807401 -0.8647499 -4.662556 -7.2521434 8.104894 0.55801195 -3.4081607 0.061828993 -4.5761213 0.09358259 -0.1682079 -1.4979774 -0.8045819 -9.4913 1.8753312 -2.9180198 -4.7840095 0.54240274 -2.127244 1.2306446 6.918077 -0.7682851 4.7953777 3.3267188 5.008491 -3.7043293 1.8800188 -4.551673 -0.43329617 1.0254914 6.968193 1.325073 1.19633 -0.13403256 4.783286 -3.3416536 3.9823327 1.006017 2.8529503 3.8799775 4.8719954 1.8127722 -2.8742497 0.542606 0.02607054 3.852879 4.0957274 0.39651322 1.158198 -1.1958842 -3.9860723 3.3957875 3.476307 3.2318573 5.0400543 2.0029902 -2.5118897 0.028762473 -4.141114 0.65646756 1.108763 -1.8439732 -1.2150128 4.409679 6.35685 2.4944558 4.4928412
尿 -1.7251561 -0.15154833 -1.1073847 0.9538103 0.49664834 -1.5965719 -1.7527857 0.89872783 1.8108029 1.2307174 1.7568359 -4.1635456 4.4506426 3.9513495 -0.21944694 6.7878227 2.617865 3.4329004 -3.0069504 -2.6044984 1.862855 3.0998282 1.0652109 3.9666004 -2.3002112 -3.31307 -2.568879 3.0613124 -7.0514803 -2.0152562 6.3740172 -3.0527582 2.8688645 4.3686767 -1.5187973 -3.9484673 -3.756201 7.690681 -3.9509492 4.846467 -5.0690055 1.0787003 -1.2875872 2.028012 -2.0308611 1.073171 -0.96763027 0.73561686 -1.1022105 -0.32185206 -5.387375 7.5058274 2.3834476 4.8818226 -3.523303 0.6044188 -1.0594667 -0.56720316 -0.22895326 -4.5704203 -1.6734477 -1.4983759 -4.94948 5.074898 0.2901967 1.3126749 5.474293 -1.0841862 0.82207733 3.3965173 -3.0971673 -1.791066 8.136424 3.3520672 -3.9006243 -0.62628603 2.6159432 6.6238112 -3.4325616 -1.0281606 -5.142187 -0.5694709 4.427051 -1.2701015 -2.3593109 -1.5468651 4.294551 -2.1381598 -4.5377064 -1.224373 3.156623 -2.5055234 -0.51157326 -2.530865 -2.9805431 4.9042044 -6.1267667 -0.15654704 -4.538382 -0.4649196 -6.3419037 -4.4201913 -4.237581 -1.873564 -1.2729352 -1.307812 -1.1357893 -2.5705042 -6.3904233 -1.5134408 5.5544405 5.1436877 -3.23219 -1.3644608 1.9602914 2.1790185 7.902607 -0.05869478 0.6828311 -4.1152844
双 -2.0678766 -0.48210543 1.5401722 -2.98398 -2.1304312 -2.6706302 -1.9428097 -1.4264377 5.8883038 -1.1966082 3.0292537 4.421212 0.1755713 1.539929 -2.7951705 2.538728 -6.7760935 -4.131778 -6.906114 -2.3297124 1.9207251 0.11575672 3.1012177 -3.4531095 -1.5697217 2.085277 0.7145374 -5.9229364 5.7774353 -1.2845123 1.8967954 -2.5539017 -4.4554462 -4.9083242 2.517979 0.6010922 2.289963 1.7728715 0.33879682 -4.8747625 1.798281 0.2153671 1.0326971 11.175004 -4.134063 1.2340951 -2.5367537 2.325847 0.08220896 3.1296577 1.8530035 7.8328466 -0.34938997 -2.133736 2.8212314 -2.5359542 0.46254763 -1.2496085 -0.27298746 1.4604439 0.85438544 3.513041 -0.37889355 -4.141452 -11.333468 -1.2802136 7.1061873 8.588483 -2.0897217 1.3985062 3.3774831 -2.2522461 -2.9984703 7.109814 -1.2142116 -3.9539495 -11.271744 -8.248798 2.3673959 -8.501169 2.0421517 3.9162767 -0.20644619 -0.21927503 -3.8743904 2.9564931 1.2641926 -6.8769135 -4.0740066 5.014951 -0.44253725 8.996511 1.1576505 2.510989 2.7452364 5.9437327 2.482666 -1.4380062 6.3178215 -2.4094625 -3.3794634 -0.36254358 7.219015 -1.8986874 -3.1266148 -3.8741918 -1.7152548 0.513751 -1.5585505 -0.1252153 -6.39074 0.85350686 1.7930604 -10.99049 -1.7617619 2.7346354 1.6880187 -4.1515346 2.120911 1.1942891
嗽 0.05462687 0.3155023 -4.1247654 5.3295693 2.2839117 3.280246 2.233128 2.5997653 -3.658952 -1.6260588 2.0097277 -1.2006191 -0.5042796 4.0055027 4.837706 0.7786639 0.7114341 1.2450072 -5.3241453 -0.89356816 -5.2315793 2.133089 0.38913324 -3.7386494 -4.103394 -3.5115178 6.525339 -3.5901604 -1.2506367 -5.946709 -5.3879924 2.6916895 3.621798 1.1924667 -1.5129166 0.22937736 1.394774 -3.98732 4.264224 -1.9721402 2.5507295 8.388208 -4.1882744 6.4616947 -1.3975871 -4.613019 0.9737888 -5.4400845 -0.28416106 0.24635845 -0.49653727 9.3861065 1.573537 1.7491617 5.0720925 -2.6015315 -0.43953457 2.2469997 -1.8692349 -1.6647918 0.31136012 7.6737375 2.947712 -3.232513 2.3779504 -1.2161715 -3.3104858 1.8494366 -5.636618 6.2643304 -3.2465353 2.1290119 1.0610415 -5.4772205 0.35428634 -9.01198 4.0469255 0.9686607 1.1654625 8.092761 -1.579165 3.0807722 5.2060437 1.2251587 8.229362 -4.379857 0.74284226 -2.3851924 -0.57471174 -5.256542 8.115822 1.309092 0.70833105 0.36400235 -2.6830928 4.236842 2.354164 -1.6019745 -2.820885 3.166659 -0.20874135 -6.976696 -7.399498 -0.928942 -7.313374 -3.1948264 1.706917 -3.679393 0.36383438 3.9346232 -3.402336 -3.5073535 -3.7101383 -3.532811 -0.6053952 -6.3032537 -1.9167086 1.8369715 -6.676326 2.661086
力 1.5910443 6.026474 -2.147662 2.5296617 -0.23446359 2.2830691 0.80431867 1.4526298 -3.1020267 -5.1157317 -3.061307 -3.7457912 -0.98048896 4.788449 7.838515 0.059523445 -0.040009994 -2.504344 -0.3467985 -4.086004 -3.8928466 -8.336411 -2.202714 -5.0230646 3.4297786 6.182846 9.216896 -2.6057208 5.4464774 7.735873 -3.0111785 -6.485965 -0.49137592 3.355299 0.14481726 -7.115628 9.455579 2.2350805 1.8636538 -2.1160028 -4.443936 -3.244471 -4.890671 -0.49139896 5.82853 1.395977 -7.275275 -5.165625 2.7047994 0.40759763 0.80268294 -4.084821 -3.5359447 5.045969 -4.6835546 -2.5698478 0.36400983 -8.779508 2.045993 -2.5951402 3.608908 4.723579 3.937202 0.10909895 3.7614121 -1.1841011 11.472386 -0.44641757 -4.2955256 1.6389261 -1.0609806 -6.3179064 4.5916786 5.400358 -2.1331067 1.7223059 -2.8558996 -1.1737468 2.9779565 0.6146757 7.3103447 2.262612 2.4231415 -6.203674 2.040629 -1.5849864 -0.3667399 -3.6114798 -1.5063788 -7.983596 1.4788673 7.818603 -8.9740305 0.18550749 -1.4107691 5.852227 2.1513693 -3.1772847 -1.9438276 -2.8675034 -1.7871696 -5.1066465 -3.8906379 14.078486 -0.9122276 1.5075564 -3.0950146 -4.758023 1.2835246 1.7355338 3.0166202 -0.2165004 0.24728201 -2.656234 -0.55050164 2.4055274 -5.4038224 -0.7971733 -7.351727 0.6251799
等 1.4669566 1.7315465 0.24088222 -1.0980672 0.03862746 -5.2291303 2.336647 1.2821766 2.662218 -0.58803004 6.4588327 -3.9762115 3.4209957 3.1897163 -4.2072783 1.5366375 3.203896 1.1029696 -2.4023657 -5.3883376 0.028794814 1.0509344 7.286313 -2.3355265 -4.5460367 -1.4471039 -3.139698 -0.934676 -2.5927358 3.8100567 -1.7645236 -0.92281634 -0.18124217 1.7562729 -3.2313957 1.298478 2.4805062 2.733305 3.7635453 0.48514065 -1.1686853 0.471956 -1.2113627 -1.6838627 -4.318706 1.1416099 2.3671172 1.8796347 -0.9772738 -2.6676445 -1.0348061 3.607597 0.6676538 0.4087865 -3.1357794 -2.2490072 -1.6343911 -2.314754 4.6665874 -3.4785416 -7.201329 0.14787397 -4.113175 -4.2548857 -4.230341 -0.20421623 -3.9681382 0.49211493 0.83375055 -4.693492 -6.606748 0.69216645 1.4438095 0.37411806 3.9257934 -1.9034487 0.32194924 0.6725701 2.5372472 2.3958821 -1.0698436 -1.9448448 -2.8415174 4.591399 2.1132963 4.749884 -4.132292 -0.04787406 -2.0977392 -1.6861445 0.27793914 -0.39327732 -2.8030221 7.6511235 3.5529401 -1.5173949 0.119068116 0.081177 -1.8577803 1.5798452 -2.3670402 -3.127791 -1.0855255 -1.0962951 2.297548 2.74506 1.5741271 -0.7590265 0.26222572 1.2912047 -2.5023944 -0.0065230597 -2.6006207 -3.225283 3.033511 -1.7722613 -3.1954916 1.2392906 -1.3352195 -5.698487
软 0.9947252 -0.06934207 0.3285851 -3.2200239 -9.583977 -4.3453693 3.0454726 1.8052454 8.259632 1.6717974 0.46728873 -1.4549675 4.8248353 -2.5404382 -3.836797 -9.474085 -12.124624 -0.74803966 -0.57113963 -0.69134897 -0.5162059 1.8492428 -0.15166472 -7.3618155 -2.1397004 -5.5353084 0.32204443 -3.319625 -1.4740691 3.8653195 0.45419243 0.22815335 -3.2833388 0.9516701 9.539608 3.017141 -2.932049 -2.3624365 2.0390186 -4.0096364 5.5939 -3.2131023 -1.0674669 1.4820478 4.1532745 -6.725128 -0.44213203 -1.1485304 3.8736055 11.603301 -1.6601778 -3.278574 -4.9262314 1.148305 4.247244 -10.649628 -1.7162932 2.1606162 2.1368787 -2.4357927 0.2789571 1.7177576 -3.074961 -3.7068236 0.584884 10.408904 6.3885174 -4.346551 8.225441 -6.774178 6.069123 3.3348153 -0.29774988 0.113899134 2.8338604 1.7713823 -3.556315 1.9195175 -2.6636417 2.0998867 -1.4582112 0.1643642 0.32196403 -9.277624 0.9145636 -1.4301764 1.8189172 11.648156 -2.567624 3.570808 -3.6829045 -8.135529 -0.17931099 -2.5337858 6.4589443 14.475814 0.86684036 -2.8122892 4.0690403 -0.20348781 -2.4722826 6.8383565 0.15955259 -0.5385066 2.1976833 5.287009 4.8006325 -4.9130335 7.14505 -1.7580099 1.657184 3.0926893 -6.8258476 2.0459664 3.209415 0.66568094 -1.1339622 0.5603973 -7.418443 -7.4676323
治 -9.288301 2.5868955 -0.6790302 -1.5027704 -1.5236712 3.622403 -3.1373482 4.7617574 2.0857487 -4.163492 -2.1901088 -2.2661119 3.0364394 -1.3921562 0.6532349 5.0827613 1.9249895 -12.320773 -0.40155345 -0.2412006 4.0446906 0.941793 5.330531 2.8793821 1.5453777 -1.5878534 0.22479509 -5.6298995 -4.1301594 -0.35343933 5.03096 4.5260344 1.8521639 -5.5702734 -2.8517282 2.1462557 4.19997 -0.397173 0.23640402 -2.8911805 1.3694124 -3.508693 3.1532855 -3.7570255 6.93623 3.3430445 -8.4080105 -2.6478806 9.208115 -1.2695338 -2.4659727 6.9744287 2.2735353 -6.59193 0.52502114 0.17526603 1.8994402 -0.6936707 -5.763855 2.1107776 -3.6614368 5.471292 4.748102 -3.9677217 -3.5521262 -6.484024 -6.4852414 -2.1818013 5.662862 -1.8771132 3.8166456 2.2166967 4.1697984 -2.4228745 0.6013832 8.148224 1.0922675 2.959126 1.9861089 2.1441984 8.746297 2.6694276 0.1905716 4.2719455 1.5400809 1.1011261 3.5568168 0.79698837 0.20515823 -4.8182635 -2.3336637 6.6297407 5.6055284 -6.89463 -5.440762 -1.6791645 -3.7657611 1.0506605 3.0614665 -8.907589 1.7278011 2.7380576 -6.307973 -4.179458 0.82568437 -2.7576373 -3.1409469 9.43327 6.014523 -2.9413342 1.5752879 -0.8218924 0.612093 -2.9335928 1.8561407 1.0855534 -0.5699357 -4.4206963 -3.971496 1.1734413
口 0.83249927 0.8770637 -0.58762515 -2.32507 -1.3548257 5.3311706 0.84473956 -0.6242515 0.8563177 5.589488 -3.38575 -1.3527521 2.4513798 0.14089388 -2.4896455 -1.5464928 4.1290917 -1.6700156 -5.9508157 7.334536 -8.315665 -0.52625173 0.10360304 3.350853 -1.6417103 4.9317217 6.491297 2.845265 -3.1968303 -3.2422898 -3.0524454 1.9582968 -5.083662 0.64971167 -1.9124483 -5.195955 -4.910166 -2.2521348 9.380324 7.290225 -2.2746942 -3.8689306 2.4276624 4.5162024 0.32570398 -2.8099382 -3.7034693 -1.6482573 0.47923243 -3.4532676 2.1176853 2.1306934 7.314294 -3.254801 -0.18875578 -5.081692 -2.3125708 -2.0441806 2.0985572 -3.4899774 0.14690235 4.3046465 -2.5335417 -3.6341326 -0.86323804 -7.1043925 -4.3670855 -0.8359679 1.7348258 2.2522857 1.6124829 -4.532061 2.476913 -2.6103666 -1.4980065 -4.967777 -3.7243714 -0.5436778 0.3156963 -1.5520093 -0.8031976 1.5028435 -1.6553361 -12.55521 -7.7466145 2.8460257 3.5105855 -0.9860606 1.4018953 -1.9396743 -0.8883868 7.2473288 -2.7547286 4.058925 4.7468457 -2.7667391 -0.5669425 -5.1029425 -2.5889053 0.96490586 -1.0139458 5.357107 -5.161962 -4.262747 -1.1971252 2.5922337 -5.249709 2.689489 -1.7362347 -3.6727765 1.6161535 -2.1942215 -3.2246635 -2.7646902 1.1704358 1.1060048 -7.5157433 -0.06965416 8.038321 0.8087699
L 1.8404869 -3.4871843 3.1186159 -4.141177 1.794124 3.8968587 -2.457164 7.293587 -2.2076132 2.2395349 6.304526 -10.528854 3.1171036 -5.43346 -0.27176887 -3.6518638 0.14916256 2.7341912 -8.074806 -3.232905 -0.6295844 -0.75039184 7.251478 3.4613585 -0.95166475 -3.6169386 -1.6409582 -1.1530617 -2.8482993 -1.8305786 -2.1372557 0.3341078 -0.31593016 1.4570291 -0.7499761 -5.2060604 -0.5399718 -0.372193 -3.4931278 -2.1774757 0.5965074 7.432112 -3.5692525 -4.296344 0.21956067 -1.5031863 -6.7949066 1.2777928 -3.6056938 2.4089477 3.0826964 -0.64854974 5.2471128 -2.3609538 -1.5269983 1.6672988 0.20479795 -2.355083 -0.57394874 1.1905626 0.74470323 -1.2357962 -2.8787572 1.4381613 3.8086233 -2.0475912 0.77112615 -0.016316563 -1.9407754 -2.7448 0.3847107 3.4298775 -0.9604487 2.6411917 -0.857223 -3.1295555 -1.5481057 -0.56322104 -1.1064466 -1.8435422 -0.5224798 4.947808 0.14975122 -2.4928608 -2.4266624 0.8056255 -1.3862097 3.148171 0.48962098 2.6888618 -2.3442545 1.6515423 -1.9955323 -2.8628542 0.14512274 1.9827275 5.2199693 -0.259821 -5.1894917 -6.326229 1.0145979 0.2968228 1.940623 0.028272659 1.7863047 -0.091842614 0.2811228 -2.608459 0.51574856 -1.0135338 -1.6444232 3.2838464 3.2756345 2.2358124 -3.9135172 5.3994064 4.219893 -6.801287 0.58609986 4.972478
9 2.033403 1.4227575 2.698583 0.88882166 4.1035347 -1.0552557 -1.7670107 0.6042027 2.2076347 -0.5324245 2.8289707 -1.4070468 -0.37548393 -0.08125268 1.6873481 -1.7836379 5.9620843 5.0569177 1.0476096 -0.5578053 -1.4860638 -1.6196679 0.57194626 -4.068439 3.7676337 0.8683539 1.6698122 0.78730774 1.8464019 -4.196095 1.6989387 1.7459605 4.6253915 -3.6131456 -1.798135 -0.5351522 0.7901732 -3.2485344 -4.6447563 5.264081 3.21212 0.7421794 1.8747715 -6.8128614 -0.88104767 -1.1489578 -4.075988 1.6935048 1.570824 0.96582645 0.19448234 -1.1889094 2.476276 -1.0983338 1.9851407 -2.443228 0.26952437 -0.30296335 -1.9735608 -1.2861652 0.08490327 0.9771956 0.5385834 -1.6939957 0.2706176 2.5609157 -4.095872 3.5560827 -1.4089978 1.0059334 2.6100485 3.1688037 -1.1093949 0.4533038 -1.3846718 -2.2960823 -0.97945523 -1.5114422 4.2748046 0.20640376 1.4503318 0.8824073 0.9092504 -2.9609392 1.9900423 -1.6471584 0.2593026 0.38417202 -0.7187092 -0.8244978 -0.8187169 -4.8790307 1.4491552 -0.02809191 3.8179214 0.8225632 -0.49310008 -0.6795939 -0.7258605 -3.048589 4.253069 2.2502568 -0.62993973 3.3873641 -0.91289777 -1.4636155 1.7929853 -3.3747282 2.7586892 0.25016648 1.1875125 1.1414355 2.4233003 3.9238791 -1.418935 4.2005816 2.8930213 -1.5766702 3.351007 3.5693777
6 0.044778593 0.4433241 2.5683365 1.4419552 4.4349613 -2.0686383 -2.4489844 0.1164751 2.3641236 0.81676924 0.29411885 1.2935034 1.5306451 -0.78814375 -0.61251205 -0.074033484 7.2570205 5.2891192 1.6966041 1.564415 0.7209388 -1.190589 -1.0332032 -2.0509639 1.8256291 1.1089358 1.444205 -1.2549319 1.3257052 -0.99332327 2.7795308 2.1294758 5.4901743 -3.447591 -1.79726 -0.6403331 -0.0158892 -3.2012587 -4.544589 3.248768 1.9212754 0.6010793 0.13321093 -7.1272044 -0.06298172 -3.5205429 -2.3168583 2.3209188 -0.4075615 1.7125201 -0.7701723 0.114877835 1.4997083 -3.2531219 0.7203888 -3.0309699 0.011463072 -1.2987788 -3.575831 0.03446721 0.87975055 -0.92309785 2.1242826 0.04064665 1.5826403 1.7617102 -0.7560118 1.7264019 0.6506836 -0.61617017 1.6398078 1.4292197 -1.6044106 -0.8015701 -0.98388934 -4.153904 0.22261123 -1.456056 4.5449233 -0.7987365 -0.06890533 2.2458284 2.3925357 -2.852323 2.4089158 -1.8649182 0.45387736 -1.0962056 -1.7207968 -1.2014382 0.7368324 -3.7384598 1.0125695 1.2723736 1.5478126 0.6729126 -0.23510058 0.35944322 -0.62763995 -1.6958401 4.3524528 2.9965641 -0.38302398 2.1468666 -1.5650272 -0.19518127 1.45391 -1.0734956 3.6263413 -0.788093 -0.06733888 -1.0757233 2.3028133 0.9768697 0.0003561303 5.5853505 3.5431163 0.79175436 3.9922717 2.367088
气 6.6899333 -4.49448 -1.3471789 -0.30410346 -1.3952079 -10.913166 -3.8879678 -3.77794 -3.6160636 -0.07708378 1.2969948 4.779537 -7.0549197 -5.534843 -4.7310786 3.5940175 -6.2247596 -4.1464214 -4.482915 3.6912837 3.4597998 0.3186796 1.1731579 2.6678987 6.2624655 -12.84719 2.8790786 -2.1045294 -5.1449537 2.966322 6.1522427 -3.1356585 -5.4029536 -0.81638575 -6.438908 -1.524048 -1.679982 1.9159331 2.8729978 3.5282633 4.042443 -2.5336003 -2.3943317 2.7957184 -2.2623417 -6.3543086 -2.3974895 -1.8343244 -2.9521139 0.85438824 -2.8306744 3.381955 6.4613285 3.2651782 0.87165964 -2.8286061 2.1583276 -11.778055 -2.8124392 -0.09091026 0.309187 12.490351 -5.4916387 -5.0209737 -1.2972809 3.535598 -5.233516 -0.9695899 -3.1958163 6.157128 2.237803 4.6367025 -2.3593712 3.037513 5.288814 7.715242 -1.5063367 1.8083801 -1.2852336 -4.948501 -1.7089937 -4.528527 -0.86800724 -2.0397177 -2.3751955 -2.6130574 -0.4769093 1.7948631 1.1727618 -2.3319912 -2.2109246 -2.0394692 0.81274897 -4.5176706 7.8103895 0.44705915 4.430659 1.1424137 -5.0584025 4.8557234 -4.9870596 -2.1740074 1.7458895 -1.3383523 -5.5758867 0.6085126 5.647427 1.2428402 -3.77947 0.53745306 -4.287179 1.1933466 -6.3621745 -0.30318123 2.5697117 -3.2069407 7.128607 3.8448782 5.39109 1.6813576
阴 9.286793 1.8335836 0.5916486 -0.67956084 -7.832627 1.622493 2.1830542 8.553629 -3.153424 2.817421 -7.6045494 9.020491 -0.8875131 7.3808293 -5.5395594 -3.281014 0.5352967 -3.6836643 1.0602674 -7.662273 -1.5938343 6.712644 10.806086 0.91968584 -0.59781474 -1.2975821 4.0339565 -0.07478874 6.2023907 -3.5736635 -2.723641 -2.34875 0.13769116 2.0944972 0.024759911 0.30924064 -2.5438056 -4.2858577 -1.2997959 0.19490999 5.213272 4.7392616 -0.89980686 -4.5755415 -5.6558585 10.747464 -1.5188963 4.8648477 6.9167047 4.396496 2.5750608 -1.918676 -2.845504 0.15065248 5.2144675 5.138637 0.89768815 -3.9534452 1.6972779 -7.0069294 4.374466 -5.9917316 -8.143253 -2.1574137 -3.0300293 1.4157586 2.1323283 -3.423076 -1.7014391 5.638386 -2.3249285 -9.144838 -9.426087 -3.7499309 1.2484776 -3.8880482 -2.60839 5.743111 6.4756703 -3.2741876 -4.797394 2.9310029 -0.99179125 -0.50839615 -4.1753364 0.39972273 -3.0510595 -1.9180269 -2.5639203 -6.647124 -0.08561072 5.620044 -0.39287394 2.9113314 -4.9703984 7.5006924 2.4943075 3.4611506 -1.9343424 2.653512 -5.2581477 -4.3639684 1.5773104 -5.736517 -2.4177063 2.1968715 -1.9271659 7.033815 -2.5463302 7.9458623 4.385834 -1.6628951 -2.6965833 3.9966125 0.0599536 0.71071833 3.9457135 -10.802916 -5.1688747 2.7095635
生 1.4101306 1.5691631 3.7942939 -4.2590723 3.8334086 1.1722634 -3.7419868 0.5357836 -2.6719375 1.2823849 -3.2125685 3.6258054 -3.7027283 -2.97604 1.1195235 3.4502852 -0.6273909 0.4936002 -3.4882708 4.912569 -2.0520108 2.1534839 -0.48484826 3.0165863 -0.1308394 -1.6638243 7.039452 -3.2745795 6.3563595 9.631445 5.3310623 5.2312884 5.818044 8.46034 7.832066 -1.2005371 -1.7034127 2.833309 -0.2541668 1.9297298 -5.042481 7.2117605 0.07485268 -2.2293217 -0.79817796 10.112416 4.343814 -1.7378738 1.535034 -0.8166888 -0.5444086 -5.8600435 -1.9311234 -3.962898 -2.269302 6.2814784 -0.3370949 -3.773207 -1.413217 2.8744872 -4.9257474 1.3913686 -4.3074584 -6.523858 3.9334223 -1.8676028 4.705188 -0.21728373 -1.0279503 -6.588004 0.1338125 -2.120937 -3.8798878 -5.654414 -1.22332 1.3113627 0.82444715 1.483257 5.319035 -2.5012257 -2.5803592 -4.8637857 5.6467605 7.5805597 0.21842332 2.1130862 2.2344136 -1.2851154 4.804094 2.8147144 -3.5308375 2.2100148 -6.4096737 -3.7599597 3.5166378 -2.2031732 1.2549409 2.8833323 4.445901 -0.74350536 3.1341436 0.47064474 -4.8309593 -0.82966393 -2.9987915 -1.0166379 -2.0073335 0.51601607 4.587083 -0.28159907 -4.6145663 3.1698575 3.203391 2.4285836 -5.964266 -2.1746337 0.9871919 -0.28042436 7.4016104 7.058691
小 -3.0239668 3.4347248 5.5130696 -6.886406 5.041674 -4.207397 -1.3007679 -2.4948666 2.120461 -0.419662 -3.4724977 -3.1625912 4.513884 2.273995 3.100597 3.3906808 -1.9807506 1.9507284 -1.7554119 1.2964753 3.7710125 -7.746033 -4.205977 -0.22230114 -4.9988003 5.200744 -3.6665883 3.374906 3.9218616 -5.3708777 1.9955239 0.8202432 -3.116059 1.3899573 1.1685152 2.856811 -3.943427 5.507654 2.3222814 -4.387302 -2.1448112 2.7798176 -9.248454 2.5692363 0.20467216 -2.0681107 10.454742 3.5922813 -1.771753 -4.6544046 5.9739146 -1.2681811 1.9773822 2.9717593 -0.23083551 6.1046486 -1.2241492 -1.8906282 -2.150066 -7.4807844 -2.1257946 -0.8866011 -1.0074275 -3.6847208 1.0743592 0.05283638 -0.61584514 1.5774255 -2.2763147 -5.744333 -5.3393173 -3.6684363 3.702515 10.276185 -0.9617288 4.8904066 3.9471288 5.192693 3.9311254 6.5750027 5.0339727 4.9497476 4.5924625 4.5514903 -0.9521291 2.981477 1.2386773 1.8752902 3.729296 -0.64718235 2.2200286 -0.45983616 1.515961 -2.1793346 2.0670803 -1.4537596 4.697058 2.5836427 -0.149269 1.1773597 -1.0305774 0.51172554 -0.73946786 -2.1462352 -3.2650619 2.5342624 6.6213713 3.170236 -2.6459086 -1.0445677 10.900087 -1.081342 -0.16477497 -2.5017552 2.7718244 2.6524763 1.102393 -2.7066941 3.4379218 2.6242309
肺 4.9266677 -4.398418 4.0348425 -0.7539264 0.6967747 5.0374527 4.367077 5.7800956 -1.0103977 1.9479443 -6.970503 -6.7251163 3.2380753 1.6421176 0.6046201 -2.395714 8.605837 4.214383 4.966684 3.8936906 7.1166124 -2.0841303 6.001786 5.037002 -2.8121903 -4.246048 7.265617 3.006784 -6.973653 2.8039129 -1.2076902 0.13818468 -1.1857691 1.6025673 1.4299209 2.3224964 3.124546 -6.8295465 -1.6604189 -0.31923085 1.723153 -2.2462304 0.11765292 -0.25281316 -1.318885 -0.62166953 -2.5423965 -0.8788828 -0.89531904 -1.2873884 -7.501705 -9.675475 2.8136134 -4.425149 -3.5731647 1.0247935 -0.80430675 -3.8161542 -9.275818 -4.4789305 -0.33571196 -7.9953465 -3.2867947 -1.6525755 -1.6202471 9.742386 -4.914559 -4.9856067 5.1915946 1.1138349 0.6005949 5.437742 3.1745877 -6.9875836 0.560786 2.0189707 2.852767 8.786836 -2.9229379 9.102727 -0.9373549 -2.8407152 1.3186145 0.78814936 -3.6147037 1.3096541 -1.6838298 9.62475 -2.2255356 5.125136 2.041746 2.5336423 -4.2318964 1.9012324 -1.902921 -7.5630174 8.986507 3.637321 0.15280284 1.6264018 6.7443113 -2.3168235 -2.358301 6.85598 -1.2622596 1.9634402 -2.3686602 0.05864616 1.9035829 4.652234 -1.4596447 -2.0256596 -0.6146084 6.6047487 0.8968295 -1.9742985 -1.3179506 6.9399614 -3.4622626 0.5828924
史 -0.01979403 -0.11874955 -1.3608549 1.5095841 -6.5052323 -3.434365 -3.5292988 4.4620833 0.66273683 -2.9137886 -0.87953067 -5.0604835 4.6554165 1.3247426 -1.2619228 1.7903274 5.1299667 -0.1470424 -2.3924553 0.5238773 -1.4111695 0.5171097 -1.6578827 0.8615542 2.3832817 3.621018 6.570644 -6.9960537 -7.7573295 1.7187028 0.9901268 -1.7231234 2.8853338 0.6441903 1.0915643 -4.8446565 5.156105 5.6524615 0.025317239 4.8081756 7.630773 2.7542152 3.9429936 -3.8571877 1.7098058 -0.3184343 0.78638357 7.759926 10.016197 -4.020558 3.5901318 -2.4164598 0.2672023 2.1647518 -0.22851725 -1.4143435 -0.57969004 1.1619867 7.8049107 4.541665 0.07543903 0.9314923 -4.714297 -0.72052276 -4.229336 1.4500648 5.3107305 -0.515779 -1.1764871 2.777248 -5.96571 -0.57943135 3.1644626 -0.8146843 0.8368327 -2.5602202 4.8254 3.158152 -1.4832873 6.416618 1.1099323 -2.2002702 -1.2043699 -0.06471105 0.70857495 1.3534161 6.481731 4.6370525 3.4675133 -2.7130113 0.029108781 -6.1579485 4.6779947 1.3576139 1.8169403 2.2269073 1.7797062 -5.8652344 2.680155 7.525362 -8.1890135 4.001731 1.5649161 -7.1467714 1.0929648 -0.99593407 -3.9880564 -2.8636014 -7.97102 0.11641752 -5.5594525 0.61659294 -0.77864784 -2.2985096 -3.006877 5.25629 -0.18797752 1.7662493 -2.708079 1.4559352
征 -2.0254557 -0.8968348 2.2646663 -1.4502579 1.4604765 -3.1111665 3.3012142 4.111544 -2.8490374 8.504573 -3.2743635 -6.510976 1.3176839 8.951381 -1.1063744 0.9698388 -3.4339392 -5.008795 1.9968565 5.068699 5.6918955 -8.639281 -1.7266359 -7.7502394 3.2602758 -0.18888734 0.48122907 0.6935028 -6.332494 -1.9468343 -4.2306776 -2.1737275 6.661033 -0.20735003 2.4759915 -1.6040183 -1.3797894 -2.5260189 -0.92533535 -3.1788657 -3.3997326 -1.6175122 -0.44475704 6.0131497 1.4634981 3.2295988 -3.0671911 5.816903 2.2518785 1.846129 5.3668556 -1.8710303 -3.0718231 5.507239 -5.3431096 -3.2385402 2.1557128 0.0021562942 7.8498983 -2.3406887 -3.5041475 -0.16937134 8.13096 2.9735184 -7.6741915 -5.3114214 -0.35310993 1.7385355 -0.40848234 3.0143862 -4.268702 2.1330545 1.1886698 -7.46448 0.689964 1.1816115 -9.130045 12.415375 -1.2599484 -4.194472 -1.0881572 6.801769 -0.3764303 0.6831037 -7.270894 5.61284 0.42801812 -1.4232153 -1.0043659 5.7535787 -10.654055 -1.6819735 0.36662164 -2.5316093 3.3911855 0.50710773 1.5889916 -0.33982724 5.607243 9.9243145 2.436798 -1.0907819 -5.524734 -2.110413 -3.6593666 2.2512567 4.331 -6.2409678 0.7667958 0.26164007 -5.4512153 3.6761155 2.7934039 -1.2571461 -0.528934 -5.919127 -1.5720571 -11.20456 3.9795427 0.89518523
疗 8.838325 -4.2662034 1.5801095 -0.33031374 0.5295156 4.535006 1.0758168 -6.8175592 -5.3264337 1.3269789 -0.10498195 -0.8894808 -11.056147 0.46420196 -0.35635683 -1.195905 -7.238729 1.0264425 -4.445893 4.5885177 -6.1629806 -1.8418214 -9.488124 1.7177223 -4.8698435 3.5165577 -5.755141 6.774501 3.2410276 8.397345 0.035899375 -1.4309663 8.420402 7.9853797 3.8222127 0.26374745 1.9934212 1.2024523 0.92355347 -0.8769502 4.685207 -2.4372518 3.4272916 -0.99123275 -0.974765 -8.009216 3.510646 -2.1979547 -1.3420832 -1.2703366 -1.921234 -0.7645258 3.3167017 3.809525 -3.815493 3.2056053 -2.2076416 2.537018 2.0182934 2.3604286 -1.6588502 -1.5135858 -1.6402426 2.240037 -4.3318563 -1.4577979 4.702207 5.5533586 0.22223495 -4.748974 0.7343582 -0.27641752 -3.6730196 -2.930034 -1.2573341 -8.962305 7.260925 -0.37987143 3.1267037 -0.78662723 -9.049695 0.559139 -0.2922864 -0.46010703 0.36899066 -2.4995525 -5.9522367 3.1095834 1.8178786 0.03620186 2.0901628 -3.951272 -5.988593 6.637841 5.6559405 0.5136099 -0.41098398 1.8138882 -3.2023323 2.291818 4.593331 -0.109268494 1.48077 2.358974 2.2980216 -0.5141699 -3.1870003 -6.375969 0.05382438 0.8681803 -3.563396 6.883394 1.3694139 -1.7033955 2.843756 4.8326263 0.74192077 -0.7483386 -0.29198027 -0.8031109
m -0.30645815 -4.6925316 4.2887807 -1.4965183 -1.4742998 -3.2054539 3.752033 1.1810665 -4.5450807 0.5244563 3.8721735 1.0378042 1.6772681 0.4955431 1.154254 -0.35896978 4.002134 2.3836782 0.9211425 -7.659209 0.33346564 -4.356018 1.1340793 0.90292764 0.47691098 -5.669953 -2.9173293 2.945407 0.69146484 -5.114656 1.9990999 7.745267 4.163698 1.5503438 -0.89664614 -0.4750632 3.19545 -1.3932008 -2.9215162 -0.84013134 -1.141687 -3.3053179 -4.146896 -4.4139233 3.550774 0.2810216 -0.22699438 -0.11492552 -2.968343 0.8012395 4.3093977 0.048143975 2.6683075 -4.3835793 2.0102608 -3.1006248 -0.15351705 -1.8027446 0.9408979 -4.2110863 -3.0865774 -6.4816475 -2.9388564 -1.3046824 1.1987488 3.4555933 6.3352118 1.6099433 -4.487685 -2.9405696 1.3070775 2.422315 -0.94290787 2.45862 6.174408 -3.611703 0.07945717 -4.286501 6.243515 -2.6290689 6.6447973 -0.15352827 2.9744906 -2.9609284 0.37208256 -1.0134363 -3.0016294 1.8650148 2.5338004 -0.9544834 0.4461385 -0.878078 -1.1261569 -3.731341 -1.1589427 -2.9577625 4.5019827 1.4956208 -2.505163 -4.0074067 1.4575458 6.9332833 -1.9183366 3.047252 -2.0800397 2.399489 -0.7138572 -4.6796103 -2.285967 0.49683556 2.4221482 -0.035814714 1.8391552 -1.2712436 3.4881172 -0.95640683 1.5839827 0.55202836 6.3044524 2.1224933
吐 1.9497905 1.5137643 1.9022589 3.6500812 5.792864 5.140018 3.9957156 -6.5774574 -0.24801303 -1.80687 2.3797796 1.4395268 1.0155327 -8.889013 -4.396531 9.2340145 -3.5898967 -4.7158556 -3.0904093 -6.6322064 -1.9190198 1.9494443 1.4108913 -3.3506846 5.7731256 1.2515427 -6.0420465 -0.09383914 -8.246284 1.4698827 -2.1686764 0.9632848 3.360098 0.16770081 -1.825858 4.63446 5.3037567 -0.3264388 3.712534 1.920101 -4.5745997 0.68122745 0.8733341 -2.781425 9.824416 -0.818337 7.165478 -2.4416375 3.2517498 0.8729396 2.4587986 1.1993545 -4.469917 0.67371035 4.040959 4.8181286 1.5045459 -1.5919366 1.4734515 -3.7276204 3.7612085 4.749199 -1.1583471 8.359327 0.65948576 2.2129076 4.96153 5.9498754 3.123265 5.2645936 -0.7598215 4.513697 0.8798865 0.24611977 0.013051034 3.1893098 8.701139 4.3289194 -4.1317525 -5.2134047 3.5603514 -1.7776212 6.3080316 3.534163 4.6282263 -5.671555 2.977565 -1.411965 3.131739 2.4479718 1.4785354 -2.3542368 -2.3885534 2.318482 -1.0488541 9.29769 7.0888867 -1.3110001 3.0164227 -1.7743824 -1.082846 -2.2693102 -5.7898407 2.584938 0.7150204 3.2977402 5.1858153 -2.250897 -6.4512925 -1.6857156 -0.5261539 -5.9668465 -5.0388055 -0.5260592 -7.757644 3.1506371 4.9245152 -0.5586156 -2.8162367 2.2961998
